#pragma once
#include <cstdint>
#include <cstddef>

// FC_WEIGHT shape=(10, 784), dtype=torch.float32
#define FC_WEIGHT_DIM0 10
#define FC_WEIGHT_DIM1 784
static const float FC_WEIGHT[10][784] = {
	{0.036419566720724106f, 0.02900879643857479f, 0.0037890782114118338f, -0.023140614852309227f, 0.001514057395979762f, -0.004083196632564068f, -0.000370288296835497f, 0.027737915515899658f, 0.005344412289559841f, -0.01963070034980774f, 0.01465615164488554f, 0.006039001978933811f, 0.014568437822163105f, 0.02563946135342121f, 0.01613103412091732f, 0.004486697260290384f, -0.024549832567572594f, -0.007756081875413656f, -0.023287486284971237f, -0.0047692484222352505f, -0.01950543001294136f, -0.001151284552179277f, 0.018651511520147324f, -0.02205468714237213f, 0.015758389607071877f, -0.027260398492217064f, 0.022763540968298912f, -0.0199016984552145f, -0.025126181542873383f, -0.009088492020964622f, 0.018240999430418015f, -0.010083246976137161f, 0.03813687711954117f, -0.010287132114171982f, 0.029522785916924477f, 0.034058842808008194f, -0.024555571377277374f, 0.005192967597395182f, 0.021560467779636383f, 0.024981096386909485f, 0.0013523621018975973f, -0.010010290890932083f, 0.0024161217734217644f, -0.018757149577140808f, 0.042648203670978546f, 0.0025485942605882883f, 0.03058965876698494f, 0.01586153171956539f, -0.0011633126996457577f, 0.015732377767562866f, -0.027922755107283592f, -0.00893689040094614f, -0.023438427597284317f, 0.03214149922132492f, 0.008656826801598072f, -0.0050885314121842384f, 0.00548479612916708f, 0.010769089683890343f, 0.03400044143199921f, -0.0014204047620296478f, 0.02828184701502323f, -0.03006190061569214f, -0.023836594074964523f, 0.011186983436346054f, 0.0012375650694593787f, -0.03024759143590927f, 0.023252103477716446f, -0.0009744106791913509f, -0.02098791114985943f, -0.047194406390190125f, -0.026042956858873367f, -0.021018223837018013f, -0.056587327271699905f, -0.003728714771568775f, -0.03326984867453575f, -0.017071478068828583f, -0.02184859663248062f, 0.03151722997426987f, 0.02364766225218773f, -0.02535094879567623f, -0.00566044682636857f, -0.010944291017949581f, 0.022630156949162483f, 0.03996796905994415f, 0.020828504115343094f, 0.023154092952609062f, -0.01333144586533308f, -0.013267784379422665f, 0.03194238990545273f, -0.04621738940477371f, -0.04673393443226814f, -0.043663959950208664f, 0.028225379064679146f, 0.009037761017680168f, 0.003520892234519124f, -0.0260826013982296f, -0.016271471977233887f, 0.051956430077552795f, 0.05887305364012718f, 0.029948769137263298f, 0.04805966466665268f, -0.009808380156755447f, -0.06873412430286407f, -0.09907154738903046f, -0.07114195823669434f, -0.06712772697210312f, -0.0236300490796566f, -0.0530572272837162f, 0.011636047624051571f, 0.0026209531351923943f, 0.021051395684480667f, 0.0347556509077549f, 0.037252359092235565f, -0.005005166865885258f, -0.026822594925761223f, 0.008618561550974846f, 0.033495597541332245f, -0.02774917520582676f, -0.051618121564388275f, -0.045730262994766235f, -0.005738229025155306f, 0.05630632862448692f, 0.03282114863395691f, 0.07668965309858322f, -0.052770763635635376f, 0.06692511588335037f, -0.04398433864116669f, 0.03566829860210419f, -0.06720755994319916f, 0.06863128393888474f, -0.03509431332349777f, -0.07112047076225281f, -0.06707195937633514f, -0.0666598230600357f, -0.0383552685379982f, -0.035485558211803436f, -0.05832673981785774f, 0.006186177954077721f, 0.015580539591610432f, 0.02563372068107128f, 0.03827178105711937f, -0.026582740247249603f, -0.005167837254703045f, 0.014809172600507736f, -0.01610490307211876f, -0.062048524618148804f, 0.001954549690708518f, -0.00779179809615016f, 0.024106169119477272f, 0.001643085153773427f, 0.08857359737157822f, 0.03552241995930672f, -0.022127268835902214f, 0.09421214461326599f, 0.12811250984668732f, 0.08723092824220657f, 0.10586114972829819f, 0.1537664383649826f, 0.15578295290470123f, 0.07310682535171509f, -0.04927094653248787f, 0.029447810724377632f, -0.0070271799340844154f, -0.09665510803461075f, -0.10934565961360931f, -0.016987256705760956f, -0.04193085432052612f, 0.020482137799263f, -0.002282442059367895f, -0.022244608029723167f, 0.00919700413942337f, -0.013307527638971806f, -0.028717704117298126f, -0.015116469003260136f, -0.02266990765929222f, -0.008109812624752522f, -0.02233549952507019f, -0.08701711893081665f, -0.012007899582386017f, -0.018045255914330482f, -0.10061138868331909f, 0.10963467508554459f, 0.11581498384475708f, -0.022309260442852974f, 0.08015420287847519f, 0.07712087780237198f, 0.14604005217552185f, 0.055722787976264954f, 0.031823478639125824f, 0.17019394040107727f, 0.1770433783531189f, -0.03638171777129173f, -0.16133342683315277f, -0.12834781408309937f, -0.02426433563232422f, -0.024004897102713585f, 0.0008468779851682484f, 0.008474265225231647f, 0.02297392673790455f, 0.017252031713724136f, -0.04130750149488449f, -0.011796579696238041f, 0.01327977329492569f, 0.015442741103470325f, -0.10059202462434769f, 0.036234162747859955f, 0.023120680823922157f, 0.06768561154603958f, 0.016403192654252052f, 0.08993243426084518f, 0.022877203300595284f, 0.0046303304843604565f, -0.014311683364212513f, 0.14759373664855957f, 0.1209632083773613f, 0.09440477937459946f, -0.012935316190123558f, 0.018165303394198418f, 0.03929593786597252f, 0.11403053998947144f, -0.11128850281238556f, -0.14667782187461853f, -0.09042391926050186f, -0.0132201062515378f, 0.021341916173696518f, 0.005339192226529121f, 0.02262311801314354f, 0.0169810950756073f, -0.030789146199822426f, -0.06031271442770958f, 0.02062687836587429f, -0.08673170208930969f, -0.0028694786597043276f, 0.09007599204778671f, 0.048170529305934906f, -0.019750967621803284f, 0.08782723546028137f, 0.00706849992275238f, 0.13372595608234406f, 0.1411290317773819f, 0.28290608525276184f, 0.1451241672039032f, 0.10951005667448044f, 0.04146891087293625f, 0.0822817012667656f, 0.05826008319854736f, 0.08096769452095032f, 0.1992020308971405f, -0.0009451310033909976f, -0.17279212176799774f, -0.05806306377053261f, 0.007886087521910667f, 0.03420833870768547f, 0.038743920624256134f, 0.02235003188252449f, -0.012701229192316532f, -0.0472552627325058f, -0.026426775380969048f, -0.0894884243607521f, -0.09291788190603256f, -0.06899520009756088f, 0.030764304101467133f, 0.10225141048431396f, -0.03093753568828106f, -0.01840188354253769f, 0.159076526761055f, 0.04621274024248123f, -0.10095782577991486f, 0.08263598382472992f, 0.1705908328294754f, 0.14988847076892853f, 0.17482797801494598f, 0.08580658584833145f, -0.07839353382587433f, 0.010873985476791859f, 0.21552501618862152f, 0.12661544978618622f, -0.14680545032024384f, -0.05979551747441292f, -0.011322228237986565f, -0.026495488360524178f, -0.004960095509886742f, 0.05351470410823822f, -0.0009620822966098785f, -0.007229292765259743f, -0.011422219686210155f, -0.06381874531507492f, -0.09246920049190521f, -0.049241892993450165f, 0.062275469303131104f, -0.0399070642888546f, 0.06093974411487579f, 0.03976015746593475f, 0.08027239143848419f, 0.04464635252952576f, -0.05705447494983673f, -0.009165473282337189f, 0.22424781322479248f, 0.19949576258659363f, 0.011829053983092308f, 0.08286860585212708f, 0.08178870379924774f, 0.1418980360031128f, 0.2424614429473877f, 0.12130720913410187f, -0.18777351081371307f, -0.032029617577791214f, 0.021890833973884583f, -0.0027833450585603714f, -0.00754579808562994f, -0.023803342133760452f, 0.03805270045995712f, -0.05589040741324425f, -0.05454153195023537f, 0.03704356774687767f, -0.005776562727987766f, 0.02648804523050785f, -0.0745045393705368f, -0.058443862944841385f, 0.009529411792755127f, -0.15551024675369263f, -0.025980312377214432f, -0.2516087293624878f, -0.3755815029144287f, -0.3080306053161621f, -0.026523983106017113f, -0.09231064468622208f, 0.005431200843304396f, 0.12778785824775696f, 0.1736045926809311f, 0.14903712272644043f, 0.1583842635154724f, 0.15520939230918884f, -0.07778966426849365f, -0.0142464404925704f, -0.01767149195075035f, 0.02660795859992504f, -0.011935237795114517f, -0.014351217076182365f, 0.028265325352549553f, -0.06678930670022964f, -0.005821823608130217f, 0.1343039870262146f, 0.033067237585783005f, -0.0041993907652795315f, -0.02539905533194542f, 0.026073705404996872f, -0.0051509723998606205f, 0.10305443406105042f, 0.01258731447160244f, -0.31842970848083496f, -0.4581139385700226f, -0.3517126441001892f, -0.032898418605327606f, -0.031104253605008125f, 0.07813042402267456f, 0.06433438509702682f, 0.05158562585711479f, 0.14520548284053802f, 0.21772266924381256f, 0.29243484139442444f, -0.032820235937833786f, 0.0026494755875319242f, 0.011438344605267048f, 0.030755475163459778f, -0.021885164082050323f, -0.012513394467532635f, -0.023231780156493187f, -0.0122959790751338f, 0.02343880571424961f, 0.18016906082630157f, 0.16146376729011536f, 0.08173569291830063f, 0.07313736528158188f, 0.11977487057447433f, 0.04493388161063194f, 0.05890960991382599f, -0.22252362966537476f, -0.37457552552223206f, -0.42514368891716003f, -0.32318493723869324f, -0.09191026538610458f, -0.011198020540177822f, -0.07824287563562393f, -0.1562110036611557f, -0.026980051770806313f, 0.10501084476709366f, 0.2175508439540863f, 0.20757512748241425f, 0.010584033094346523f, -0.008226747624576092f, -0.007945477031171322f, 0.024200590327382088f, -0.018070848658680916f, -0.015527153387665749f, -0.03559782728552818f, -0.0069338916800916195f, 0.14107631146907806f, 0.09480374306440353f, 0.22236241400241852f, 0.09268402308225632f, 0.14460758864879608f, 0.049397166818380356f, 0.11910188943147659f, 0.1291363686323166f, -0.08717574924230576f, -0.3818417489528656f, -0.35542821884155273f, -0.3930424451828003f, -0.07538947463035583f, -0.04048573598265648f, -0.08708347380161285f, 0.029200974851846695f, 0.07644957304000854f, 0.03497257083654404f, 0.24092166125774384f, 0.22846634685993195f, 0.05620035529136658f, 0.01796756312251091f, -0.026249025017023087f, -0.007194959092885256f, 0.012233724817633629f, -0.016783131286501884f, -0.05641354247927666f, 0.03412826731801033f, 0.23051060736179352f, 0.005040151998400688f, 0.24011404812335968f, 0.16615469753742218f, 0.10946869105100632f, 0.1605827510356903f, 0.009951687417924404f, 0.04024750739336014f, -0.2720576226711273f, -0.48991405963897705f, -0.3088511526584625f, -0.2617453932762146f, -0.13554765284061432f, -0.016069628298282623f, -0.06521923094987869f, 0.14283150434494019f, 0.0341624915599823f, 0.12670451402664185f, 0.17519420385360718f, 0.17213544249534607f, 0.0021178903989493847f, -0.035481154918670654f, 0.020695000886917114f, -0.010869992896914482f, 0.005564461462199688f, -0.021290073171257973f, -0.02390109747648239f, 0.044462233781814575f, 0.20533528923988342f, 0.11161024868488312f, 0.12921491265296936f, 0.16987712681293488f, 0.13762377202510834f, 0.11751995235681534f, 0.07737082242965698f, -0.15607810020446777f, -0.41746559739112854f, -0.3862745761871338f, -0.1769973784685135f, -0.13176684081554413f, -0.00867726281285286f, 0.04258034750819206f, 0.033874306827783585f, 0.10401497036218643f, 0.07259957492351532f, 0.09199637919664383f, 0.11195868253707886f, 0.03583741933107376f, -0.021481312811374664f, -0.003534361720085144f, -0.005233803763985634f, 0.008575390093028545f, 0.0019680336117744446f, -0.002262991853058338f, -4.142021862207912e-05f, 0.0565364770591259f, 0.1908584088087082f, 0.14179402589797974f, 0.12368574738502502f, 0.056626882404088974f, 0.1829417645931244f, 0.25815099477767944f, 0.08231669664382935f, -0.08880533277988434f, -0.3547961711883545f, -0.3157975971698761f, -0.1668204814195633f, -0.029665693640708923f, 0.07408276200294495f, -0.0020500507671386003f, 0.07857905328273773f, 0.08749289810657501f, 0.03389846161007881f, 0.08975658565759659f, 0.056943364441394806f, 0.014642630703747272f, -0.03785313293337822f, -0.03790152817964554f, -0.01850447990000248f, -0.00046612528967671096f, -0.008133907802402973f, 0.00189159344881773f, -0.025332966819405556f, 0.00326724536716938f, 0.036307450383901596f, 0.0658600851893425f, 0.05631956458091736f, 0.17137625813484192f, 0.15341967344284058f, 0.186415895819664f, 0.04040931910276413f, -0.1406194269657135f, -0.2999228537082672f, -0.2365393340587616f, -0.07128841429948807f, 0.0052093397825956345f, 0.004266549367457628f, -0.01584904082119465f, -0.057230230420827866f, -0.05899253487586975f, 0.029715320095419884f, 0.15883003175258636f, 0.034195903688669205f, -0.058945830911397934f, 0.0006122179911471903f, 0.013083070516586304f, 0.010847650468349457f, 0.026435701176524162f, -0.02660849690437317f, -0.016665777191519737f, -0.00803764071315527f, -0.04211490973830223f, 0.08166340738534927f, 0.0976838618516922f, 0.16173270344734192f, 0.14757747948169708f, 0.05478352680802345f, 0.15674550831317902f, 0.14931610226631165f, 0.11985649913549423f, -0.1248948723077774f, -0.15083636343479156f, -0.1020960584282875f, -0.08871208131313324f, 0.01639682613313198f, -0.003134294645860791f, -0.0722060576081276f, 0.022140324115753174f, 0.049764011055231094f, 0.11619222164154053f, -0.04582487419247627f, -0.02913549914956093f, -0.045508742332458496f, 0.014405740424990654f, 0.028359198942780495f, 0.032421790063381195f, 0.021155843511223793f, 0.03629148006439209f, -0.0016320319846272469f, 0.016543904319405556f, 0.11496291309595108f, 0.10949642211198807f, 0.059752754867076874f, 0.16290241479873657f, 0.09981632977724075f, 0.20085598528385162f, 0.2621322572231293f, 0.2392144650220871f, 0.11088161915540695f, -0.06225312873721123f, -0.026336750015616417f, -0.02884046733379364f, 0.01736649125814438f, -0.07102670520544052f, -0.10304410755634308f, -0.025989631190896034f, 0.02691531367599964f, 0.061096835881471634f, -0.06302609294652939f, -0.06382278352975845f, -0.03794979676604271f, 0.008976355195045471f, 0.005363421514630318f, 0.032787200063467026f, -0.01785118319094181f, -0.018737854436039925f, -0.04180014505982399f, -0.04774235561490059f, 0.050293371081352234f, 0.08281068503856659f, 0.08904096484184265f, -0.015264634974300861f, 0.052498914301395416f, 0.10054584592580795f, 0.20735058188438416f, 0.18453897535800934f, 0.02003021538257599f, -0.025166520848870277f, 0.010700369253754616f, -0.0089787058532238f, -0.11858879029750824f, -0.11775151640176773f, -0.16733096539974213f, -0.03034324012696743f, -0.025360453873872757f, 0.003175275633111596f, -0.052153583616018295f, -0.04093633592128754f, -0.036157745867967606f, 0.0019253114005550742f, 0.03302287682890892f, -0.025927329435944557f, -0.024231359362602234f, 0.035967469215393066f, -0.039993803948163986f, -0.12552522122859955f, 0.012398204766213894f, 0.06235889717936516f, 0.0008730666595511138f, 0.1113499253988266f, 0.09731163829565048f, 0.07466202974319458f, 0.05845562741160393f, 0.08338122069835663f, 0.245516836643219f, 0.09348741918802261f, 0.046531111001968384f, 0.030223436653614044f, 0.017644265666604042f, -0.06840870529413223f, -0.035779792815446854f, -0.08461944013834f, -0.026280906051397324f, -0.021415626630187035f, -0.007069488521665335f, -0.05038878694176674f, -0.005309946835041046f, 0.0347931943833828f, -0.027779432013630867f, 0.028587346896529198f, 0.03427370637655258f, -0.015396271832287312f, 0.00917340163141489f, -0.1277565211057663f, -0.10997962951660156f, -0.0399269200861454f, 0.0590297132730484f, 0.023144705221056938f, 0.16407732665538788f, 0.23654329776763916f, 0.21533820033073425f, 0.149857297539711f, 0.14545947313308716f, 0.1461288332939148f, 0.0851854681968689f, 0.0029099539387971163f, 0.043389566242694855f, -0.1261826902627945f, -0.191508486866951f, -0.17902742326259613f, -0.12056451290845871f, -0.05170133709907532f, -0.05521422252058983f, -0.02532891556620598f, 0.00731228431686759f, 0.012450041249394417f, 0.031064562499523163f, -0.01906018890440464f, 0.010523195378482342f, 0.013275490142405033f, -0.029962917789816856f, 0.01718159206211567f, 0.005096078850328922f, -0.07136982679367065f, -0.0731368213891983f, -0.06083839014172554f, -0.011795434169471264f, -0.003448646515607834f, -0.028463009744882584f, 0.11610336601734161f, 0.08977274596691132f, 0.06723330169916153f, 0.02966172993183136f, -0.05025426298379898f, -0.06643006950616837f, -0.14016777276992798f, -0.16814464330673218f, -0.14031608402729034f, -0.06501082330942154f, -0.025349702686071396f, -0.011535349301993847f, 0.02921057865023613f, 0.03335379436612129f, 0.023757170885801315f, 0.013064154423773289f, 0.019251087680459023f, 0.029237190261483192f, -0.003032876178622246f, 0.009575245901942253f, 0.002350485185161233f, 0.0001405739749316126f, -0.03786550834774971f, -0.07666841894388199f, -0.08038207143545151f, -0.1413508653640747f, -0.2592008709907532f, -0.24574919044971466f, -0.23465503752231598f, -0.21250952780246735f, -0.25483840703964233f, -0.22219158709049225f, -0.11952728033065796f, -0.1510661244392395f, -0.1318732649087906f, -0.04535655304789543f, -0.08889192342758179f, -0.08732068538665771f, -0.0013817627914249897f, 0.012865499593317509f, -0.005886905360966921f, 0.03452295809984207f, 0.012166032567620277f, 2.1668940462404862e-05f, 0.012845475226640701f, 0.033733662217855453f, -0.029867097735404968f, 0.027613993734121323f, -0.004488472826778889f, 0.03551371023058891f, 0.018207427114248276f, 0.020984631031751633f, -0.04985467717051506f, -0.041691605001688004f, -0.009966539219021797f, -0.02132800780236721f, -0.018460838124155998f, -0.02292424440383911f, -0.022844266146421432f, -0.01879400946199894f, -0.021253913640975952f, -0.013456898741424084f, -0.051345475018024445f, -0.023812875151634216f, 0.019947903230786324f, 0.012862775474786758f, -0.007385080214589834f, -0.0031735284719616175f, 0.0038426825776696205f, 0.00579154072329402f, 0.032960280776023865f, -0.023835252970457077f, 0.01862429454922676f, -0.02068578265607357f, -0.023820165544748306f, -0.029454991221427917f, 0.015858119353652f, -0.0036847114097326994f, 0.02525632455945015f, -0.005253101233392954f, 0.009001567959785461f, 0.021803999319672585f, -0.029348965734243393f, 0.00873109046369791f, -0.021463321521878242f, -0.015450059436261654f, -0.027111021801829338f, -0.007585187908262014f, 0.0013711388455703855f, -0.01751439832150936f, 0.02041034586727619f, -0.008125419728457928f, 0.017339784651994705f, 0.011221620254218578f, 0.02839324064552784f, 0.0027754062321037054f, -0.0051859174855053425f, -0.01347778458148241f, 0.029135888442397118f, -0.023342397063970566f},
	{0.013642458245158195f, 0.02584107592701912f, 0.06291340291500092f, 0.010581890121102333f, 0.02531452104449272f, 0.06903857737779617f, 0.061263978481292725f, 0.06120358780026436f, 0.034327395260334015f, 0.04464607685804367f, 0.06936154514551163f, 0.015698213130235672f, 0.04574304446578026f, 0.07227221876382828f, 0.0448354072868824f, 0.01982908695936203f, 0.07066772133111954f, 0.058892443776130676f, 0.05223344266414642f, 0.017993221059441566f, 0.055366843938827515f, 0.01868082396686077f, 0.02542938105762005f, 0.02013052999973297f, 0.02812490053474903f, 0.037990231066942215f, 0.0660710483789444f, 0.04073182865977287f, 0.06371934711933136f, 0.055675823241472244f, 0.06497617065906525f, 0.06152525171637535f, 0.011411592364311218f, 0.03061128780245781f, 0.04896332696080208f, 0.07613605260848999f, 0.009393900632858276f, 0.012183601036667824f, 0.026705972850322723f, 0.06545594334602356f, 0.03688579797744751f, 0.07870033383369446f, 0.057373154908418655f, 0.026208998635411263f, 0.04937278851866722f, 0.056805312633514404f, 0.013609124347567558f, 0.050257012248039246f, 0.07759392261505127f, 0.0326886884868145f, 0.018797069787979126f, 0.07736482471227646f, 0.04741448536515236f, 0.015775112435221672f, 0.05864526703953743f, 0.025972513481974602f, 0.06096631661057472f, 0.017990833148360252f, 0.06231895834207535f, 0.05553687363862991f, 0.016348838806152344f, 0.02123761922121048f, 0.06503885239362717f, 0.02637092024087906f, 0.045988455414772034f, 0.03446580097079277f, 0.016924981027841568f, 0.024550771340727806f, 0.07472996413707733f, 0.07668822258710861f, 0.10933224856853485f, 0.1463598757982254f, 0.12514296174049377f, 0.054177362471818924f, 0.010191728360950947f, 0.0368761382997036f, 0.021012943238019943f, 0.06921102106571198f, 0.013220763765275478f, 0.07135659456253052f, 0.03784369304776192f, 0.06368425488471985f, 0.059645507484674454f, 0.013301122933626175f, 0.05775696039199829f, 0.014647847041487694f, 0.08112230896949768f, 0.03769034892320633f, 0.03276195004582405f, 0.017794348299503326f, 0.035187121480703354f, 0.055443912744522095f, 0.0390409380197525f, -0.008096234872937202f, -0.0901593565940857f, -0.13223610818386078f, -0.037937719374895096f, -0.02492927946150303f, -0.020030410960316658f, 0.050746023654937744f, 0.08591114729642868f, -0.022008517757058144f, -0.08897019922733307f, 0.00588835496455431f, -0.030735649168491364f, -0.010466025210916996f, -0.015364252030849457f, 0.02326802723109722f, -0.004056868143379688f, 0.015032597817480564f, 0.003799228463321924f, 0.02103383280336857f, 0.04097567871212959f, 0.04567575827240944f, 0.02897612564265728f, 0.04944745823740959f, 0.024047039449214935f, 0.0911082923412323f, 0.04395809397101402f, 0.025352196767926216f, 0.00338925258256495f, -0.025426777079701424f, -0.05205850675702095f, -0.14008459448814392f, -0.05119774118065834f, 0.0755767822265625f, 0.05939808487892151f, 0.06068548932671547f, 0.029806455597281456f, -0.05991072952747345f, -0.06588823348283768f, 0.08448798954486847f, 0.06701421737670898f, 0.041078969836235046f, 0.019233165308833122f, -0.001765345106832683f, -0.03690105676651001f, -0.022923115640878677f, 0.06147122010588646f, 0.020900104194879532f, 0.06188323721289635f, 0.025183716788887978f, 0.06620270758867264f, 0.03696325421333313f, 0.08524838835000992f, 0.10006964206695557f, 0.01742660626769066f, -0.0445021390914917f, -0.15147989988327026f, -0.1388549655675888f, -0.12985223531723022f, -0.13079209625720978f, -0.09927484393119812f, 0.00592101039364934f, 0.018892619758844376f, 0.11653201282024384f, -0.010105588473379612f, -0.0850168988108635f, 0.022624926641583443f, 0.055800147354602814f, 0.08256475627422333f, 0.1423380821943283f, 0.14011654257774353f, 0.09542661160230637f, 0.03469272330403328f, -0.03757399693131447f, 0.031782377511262894f, 0.05732560530304909f, 0.035782430320978165f, 0.02458271197974682f, 0.07241891324520111f, 0.07760049402713776f, 0.024081962183117867f, 0.023310625925660133f, -0.020949410274624825f, -0.09999372065067291f, -0.16618815064430237f, -0.20669415593147278f, -0.11193279922008514f, -0.04763694852590561f, -0.12337757647037506f, -0.12463326007127762f, -0.09138599783182144f, -0.1351185142993927f, -0.1037534773349762f, -0.15754598379135132f, -0.04806607961654663f, -0.08120038360357285f, 0.018930817022919655f, 0.04003068432211876f, 0.06610916554927826f, 0.04385918751358986f, -0.02362827956676483f, -0.0016068705590441823f, 0.013751713559031487f, 0.07693302631378174f, 0.036541614681482315f, 0.038160260766744614f, 0.01784333400428295f, 0.00425735954195261f, 0.05026441067457199f, -0.01487137284129858f, -0.11640802025794983f, -0.14227136969566345f, -0.19532664120197296f, -0.1489078253507614f, -0.13282731175422668f, -0.10186734795570374f, -0.03319353237748146f, -0.08325434476137161f, -0.05485690385103226f, -0.21220852434635162f, -0.13150911033153534f, -0.11423476785421371f, -0.10316503047943115f, -0.0004733132664114237f, 0.05271602049469948f, -0.02171568013727665f, -0.00956040434539318f, -0.07289714366197586f, -0.13867785036563873f, -0.012681306339800358f, 0.04599437490105629f, 0.02613895945250988f, 0.06420446932315826f, 0.026480013504624367f, 0.03205813467502594f, 0.03403673321008682f, 0.04278070479631424f, -0.07295377552509308f, -0.11478706449270248f, -0.09621748328208923f, -0.20718468725681305f, -0.2311403900384903f, -0.09934937953948975f, -0.12301631271839142f, -0.010494361631572247f, 0.004478365182876587f, 0.008781371638178825f, 0.005759751424193382f, -0.14122533798217773f, 0.05875740572810173f, -0.03750687092542648f, -0.051381371915340424f, -0.08321817219257355f, -0.1118943840265274f, -0.10656579583883286f, -0.16933728754520416f, -0.17721708118915558f, -0.05146302282810211f, 0.06521029025316238f, 0.02488110214471817f, 0.07588061690330505f, 0.07000517845153809f, 0.03309683874249458f, 0.05434733256697655f, 0.01176376175135374f, -0.09285520017147064f, -0.14210759103298187f, -0.14070262014865875f, -0.12495976686477661f, -0.18810732662677765f, -0.07868193089962006f, -0.019900986924767494f, -0.048443783074617386f, -0.005084221716970205f, 0.07682068645954132f, 0.2168453186750412f, 0.04937870427966118f, 0.018329698592424393f, -0.06620374321937561f, -0.12639695405960083f, -0.1909172236919403f, -0.19369252026081085f, -0.2217743992805481f, -0.2099473774433136f, -0.11799468100070953f, -0.06756436079740524f, 0.001940060523338616f, 0.06807390600442886f, 0.03382968530058861f, 0.0620974563062191f, 0.0701165497303009f, 0.03924831375479698f, -0.017092453315854073f, -0.08380524069070816f, -0.1716637760400772f, -0.1262226551771164f, -0.10009003430604935f, -0.13067342340946198f, 0.003071327693760395f, 0.05619165673851967f, 0.013202806934714317f, 0.1600029021501541f, 0.2828924357891083f, 0.39773792028427124f, 0.17565816640853882f, 0.06298404186964035f, -0.0695594996213913f, -0.10686507821083069f, -0.18314379453659058f, -0.17268119752407074f, -0.1734783947467804f, -0.16911999881267548f, -0.0855371430516243f, 0.006131074391305447f, 0.016284681856632233f, 0.020699195563793182f, 0.014100943692028522f, 0.012586367316544056f, 0.012477445416152477f, 0.05385461449623108f, 0.004661036189645529f, -0.042486634105443954f, -0.0920073390007019f, -0.12268134951591492f, -0.1312594711780548f, -0.13015073537826538f, -0.07308346778154373f, -0.06202022358775139f, -0.06422137469053268f, 0.1683385968208313f, 0.34069952368736267f, 0.3427824079990387f, 0.12229903042316437f, -0.04008335620164871f, 0.008012179285287857f, -0.08400628715753555f, -0.12212710827589035f, -0.15047912299633026f, -0.07516179978847504f, -0.07583221048116684f, -0.024595806375145912f, 0.02373526431620121f, 0.017862828448414803f, 0.013358586467802525f, 0.01248103380203247f, 0.03304385766386986f, 0.054041530936956406f, 0.053880129009485245f, 0.03845757991075516f, -0.03409373015165329f, -0.038513097912073135f, -0.0028493735007941723f, -0.05476010590791702f, -0.06060412526130676f, -0.18826182186603546f, -0.2310168296098709f, 0.0051086596213281155f, 0.18275082111358643f, 0.4115567207336426f, 0.2031240463256836f, 0.06807846575975418f, 0.06708036363124847f, 0.003498395672068f, -0.1381532847881317f, -0.07829274982213974f, -0.024066245183348656f, -0.03971579670906067f, -0.008874492719769478f, 0.0073406207375228405f, 0.002394545590505004f, 0.06373722851276398f, 0.030016444623470306f, 0.07627566903829575f, 0.03790765628218651f, 0.017288677394390106f, 0.02782723680138588f, 0.06774792820215225f, -0.019752001389861107f, -0.01237956527620554f, -0.008051740936934948f, -0.01531578041613102f, -0.06979095190763474f, -0.34852534532546997f, -0.2962590456008911f, -0.03251752257347107f, 0.14707674086093903f, 0.275814414024353f, 0.22803761065006256f, 0.08251427114009857f, 0.13579632341861725f, -0.13665638864040375f, -0.17911694943904877f, -0.08798624575138092f, -0.06485066562891006f, -0.028102736920118332f, -0.037243008613586426f, -0.033285923302173615f, -0.010476132854819298f, 0.007661605253815651f, 0.06696978956460953f, 0.017931509763002396f, 0.06307882070541382f, 0.019046008586883545f, 0.06915787607431412f, 0.034907396882772446f, -0.0015370520995929837f, -0.01874745450913906f, -0.06495830416679382f, 0.010055861435830593f, -0.14681915938854218f, -0.3547629714012146f, -0.2818506062030792f, 0.04957287758588791f, 0.18702736496925354f, 0.269453227519989f, 0.2058684527873993f, 0.09753423929214478f, -0.06024910509586334f, -0.2572997212409973f, -0.2247713804244995f, -0.12022031843662262f, -0.10522482544183731f, -0.07310271263122559f, -0.03890519589185715f, -0.008725138381123543f, 0.05815978720784187f, 0.02592993713915348f, 0.06642428785562515f, 0.02075914852321148f, 0.07220914214849472f, 0.03378049284219742f, 0.07476075738668442f, 0.02953346259891987f, -0.0012455176329240203f, -0.049525123089551926f, -0.06068946048617363f, -0.04709964618086815f, -0.12813548743724823f, -0.21147997677326202f, -0.08668659627437592f, 0.08092962950468063f, 0.22762615978717804f, 0.34528273344039917f, 0.06963827461004257f, 0.15101538598537445f, -0.2561352849006653f, -0.2458266019821167f, -0.2475079447031021f, -0.1384565830230713f, -0.09604758769273758f, -0.045810140669345856f, -0.0032601412385702133f, -0.0027294515166431665f, 0.030124394223093987f, 0.06924152374267578f, 0.015854543074965477f, 0.07797439396381378f, 0.059093501418828964f, 0.022136270999908447f, 0.06981175392866135f, 0.012336034327745438f, -0.025894563645124435f, -0.1645480990409851f, -0.1391776204109192f, -0.10666828602552414f, -0.07507109642028809f, -0.05483094975352287f, -0.05583040416240692f, -0.10381338000297546f, 0.1948796510696411f, 0.3693818151950836f, -0.06388580054044724f, -0.001986816991120577f, -0.37536612153053284f, -0.3032970428466797f, -0.23854246735572815f, -0.120582714676857f, -0.11230603605508804f, -0.032755047082901f, -0.023286204785108566f, 0.00921048317104578f, -0.005968435201793909f, 0.06023148074746132f, 0.013593083247542381f, 0.059952426701784134f, 0.06384353339672089f, 0.017303260043263435f, 0.006024562753736973f, 0.04813951253890991f, -0.10399754345417023f, -0.18585126101970673f, -0.19777238368988037f, -0.11777786910533905f, -0.07992417365312576f, 0.022604502737522125f, -0.10357528179883957f, 0.05048135295510292f, 0.22186604142189026f, 0.3019558787345886f, -0.005421111360192299f, -0.18357506394386292f, -0.3205990493297577f, -0.16101251542568207f, -0.1389208436012268f, -0.12614841759204865f, -0.0796809196472168f, -0.033757634460926056f, -0.00962834246456623f, -0.029596775770187378f, -0.02225666679441929f, 0.04186854884028435f, 0.06914100795984268f, 0.01843770034611225f, 0.03340202197432518f, 0.053739722818136215f, 0.01836567372083664f, 0.03480555862188339f, -0.14874398708343506f, -0.32055097818374634f, -0.21262194216251373f, -0.06882207840681076f, 0.0055214110761880875f, -0.09858586639165878f, -0.09855236858129501f, -0.003324629971757531f, 0.061689961701631546f, 0.10508057475090027f, -0.16292156279087067f, -0.2786310315132141f, -0.09324122965335846f, -0.04398156329989433f, -0.002501722890883684f, -0.002827687421813607f, -0.03517520800232887f, -0.014286266639828682f, 0.004914924036711454f, 0.04160328954458237f, 0.02641175501048565f, 0.05656430497765541f, 0.07075461000204086f, 0.07819107919931412f, 0.01801690272986889f, 0.07802083343267441f, 0.027798790484666824f, -0.010245412588119507f, -0.18556520342826843f, -0.1547282338142395f, -0.07052528858184814f, -0.052437663078308105f, 0.017388515174388885f, -0.0724104791879654f, -0.07920975238084793f, -0.083490751683712f, 0.06499818712472916f, -0.03317077457904816f, 0.024115487933158875f, 0.11502693593502045f, -0.02665126509964466f, 0.07588620483875275f, 0.09802397340536118f, 0.046155963093042374f, 0.01800791546702385f, -0.04951654374599457f, 0.0003851281071547419f, 0.06327458471059799f, 0.06073063984513283f, 0.023675939068198204f, 0.05263809114694595f, 0.06990578770637512f, 0.015152262523770332f, 0.05897388234734535f, 0.008311872370541096f, -0.043046921491622925f, -0.17552219331264496f, 0.0016240034019574523f, 0.010717056691646576f, 0.09936024248600006f, 0.06679733097553253f, 0.1379404366016388f, 0.1329643875360489f, 0.042109131813049316f, -0.020885150879621506f, -0.009613747708499432f, -0.06258802115917206f, 0.14871643483638763f, 0.13810424506664276f, 0.1947430521249771f, 0.18645726144313812f, 0.06299486011266708f, 0.043830323964357376f, 0.023060552775859833f, -0.007666061166673899f, 0.021891897544264793f, 0.04331405833363533f, 0.040341567248106f, 0.018136480823159218f, 0.022860240191221237f, 0.06798576563596725f, 0.011189625598490238f, 0.06879570335149765f, 0.0736854076385498f, 0.15415912866592407f, 0.13142256438732147f, 0.1025359034538269f, 0.09740652143955231f, 0.04316243156790733f, 0.12884052097797394f, -0.051248546689748764f, -0.05035805329680443f, -0.08349154144525528f, 0.06599439680576324f, 0.08836787194013596f, -0.03217516094446182f, 0.03186129033565521f, 0.1469818353652954f, 0.08639149367809296f, 0.1258220225572586f, 0.10820948332548141f, -0.06764737516641617f, -0.043303221464157104f, 0.05719456076622009f, 0.09247948229312897f, 0.06589773297309875f, 0.0643279105424881f, 0.01747589185833931f, 0.04521004855632782f, 0.044164255261421204f, 0.06629379838705063f, 0.07667471468448639f, 0.33979037404060364f, 0.2122785449028015f, 0.082443468272686f, 0.02015850879251957f, 0.02669043466448784f, -0.05409473553299904f, -0.19406965374946594f, -0.27585744857788086f, -0.23458483815193176f, -0.02832876332104206f, 0.017025819048285484f, 0.006517338566482067f, 0.1446450799703598f, 0.21753539144992828f, 0.08011212944984436f, 0.1263027936220169f, 0.015926172956824303f, -0.027614975348114967f, 0.019797733053565025f, 0.03736818954348564f, 0.07860470563173294f, 0.04126077890396118f, 0.044457122683525085f, 0.07942325621843338f, 0.02606975845992565f, 0.04777810350060463f, 0.03926485404372215f, 0.04462401941418648f, 0.14444389939308167f, 0.17487289011478424f, 0.0475476011633873f, -0.014485925436019897f, 0.040382884442806244f, -0.025152001529932022f, -0.051931947469711304f, 0.1156458631157875f, -0.018512697890400887f, -0.12581919133663177f, 0.02637610398232937f, 0.07864285260438919f, 0.12718671560287476f, 0.06637204438447952f, 0.03418274596333504f, 0.005537799559533596f, -0.05947289243340492f, -0.0664798840880394f, -0.02884344942867756f, 0.0019778211135417223f, 0.019937440752983093f, 0.024521326646208763f, 0.0332358218729496f, 0.022647418081760406f, 0.02225516550242901f, 0.014428935945034027f, 0.059097304940223694f, 0.03357337787747383f, 0.004044756758958101f, 0.016472192481160164f, -0.05592389777302742f, -0.10001302510499954f, -0.08986928313970566f, -0.11537172645330429f, -0.17095498740673065f, -0.16385851800441742f, -0.16141127049922943f, -0.192240908741951f, -0.1391180455684662f, -0.21866190433502197f, -0.05634443089365959f, 0.05648420751094818f, 0.0623428039252758f, -0.007533013354986906f, 0.036296017467975616f, 0.004110104404389858f, 0.03504880145192146f, 0.0029536427464336157f, 0.027664100751280785f, 0.0649719387292862f, 0.03108416125178337f, 0.028461631387472153f, 0.03370559960603714f, 0.07872238755226135f, 0.06566394865512848f, -0.011637195944786072f, -0.00516869081184268f, -0.012904473580420017f, -0.054374199360609055f, -0.02883300743997097f, -0.12292934954166412f, -0.21167896687984467f, -0.18157240748405457f, -0.15454363822937012f, -0.13313636183738708f, -0.15175268054008484f, -0.17067629098892212f, -0.1284276843070984f, -0.06108790263533592f, -0.019566556438803673f, -0.02603749930858612f, 0.03948274999856949f, 0.06478776782751083f, 0.022313369438052177f, 0.06570078432559967f, 0.058157358318567276f, 0.06919893622398376f, 0.054243896156549454f, 0.06588952988386154f, 0.021353380754590034f, 0.08094198256731033f, 0.011391458101570606f, 0.07332545518875122f, 0.07619205117225647f, 0.07002325356006622f, 0.057812780141830444f, 0.028001273050904274f, 0.04633087292313576f, 0.003683965653181076f, 0.008309705182909966f, 0.018682237714529037f, -0.04361414536833763f, -0.056266237050294876f, -0.040938131511211395f, -0.022281236946582794f, 0.029582463204860687f, 0.0038363365456461906f, -0.006050781346857548f, 0.058354634791612625f, 0.010134781710803509f, 0.028149934485554695f, 0.022449232637882233f, 0.030659275129437447f, 0.03775372728705406f, 0.039569344371557236f, 0.05730577930808067f, 0.07132021337747574f, 0.03274053707718849f, 0.010134242475032806f, 0.02971094846725464f, 0.07549085468053818f, 0.05396109074354172f, 0.011763637885451317f, 0.029520105570554733f, 0.06723318994045258f, 0.07462866604328156f, 0.07409600168466568f, 0.0736469253897667f, 0.05180291831493378f, 0.06526506692171097f, 0.06760308146476746f, 0.03534398600459099f, 0.017438508570194244f, 0.010428493842482567f, 0.0694127157330513f, 0.017914114519953728f, 0.08048195391893387f, 0.03909318894147873f, 0.023996204137802124f, 0.02479054033756256f, 0.05178714916110039f, 0.019837144762277603f, 0.04288177192211151f, 0.017528830096125603f, 0.03946899250149727f},
	{-0.030483519658446312f, 0.0014132164651528f, -0.019433751702308655f, -0.025406384840607643f, -0.047708962112665176f, -0.04180053621530533f, -0.03388654813170433f, -0.0298792514950037f, -0.019787948578596115f, -0.05051146447658539f, -0.032105010002851486f, -0.0035744640044867992f, -0.0050236801616847515f, -0.051776058971881866f, -0.025091594085097313f, -0.027871008962392807f, -0.05371427163481712f, -0.02721613645553589f, -0.043099045753479004f, -0.02601279318332672f, -0.04473508149385452f, -0.05083470046520233f, 0.006166647654026747f, -0.054526928812265396f, -0.015611420385539532f, -0.03194751217961311f, -0.02191990055143833f, -0.03168397396802902f, -0.003533477894961834f, -0.02020401693880558f, 0.006595265585929155f, -0.013931820169091225f, -0.05227389186620712f, -0.01480185892432928f, -0.017115166410803795f, 0.0033631320111453533f, -0.03335726261138916f, -0.017770489677786827f, -0.05417471006512642f, -0.0016869429964572191f, -0.036787908524274826f, -0.05062128230929375f, -0.014524886384606361f, -0.0044961231760680676f, -0.018598876893520355f, -0.03156818076968193f, -0.008489754982292652f, -0.055364955216646194f, -0.06009087339043617f, -0.010499847121536732f, -0.016406774520874023f, -0.017035609111189842f, -0.00879948865622282f, -0.04684552550315857f, -0.036802828311920166f, -0.03926963359117508f, -0.04074111208319664f, -0.04073939472436905f, -0.06210695952177048f, -0.023600714281201363f, -0.0355553925037384f, -0.013863323256373405f, -0.008452387526631355f, -0.02174730785191059f, -0.03346223011612892f, -0.014754088595509529f, -0.008340787142515182f, 0.020156335085630417f, 0.02224254049360752f, 0.019927604123950005f, 0.015391526743769646f, 0.05291038751602173f, 0.056498933583498f, -0.03371617943048477f, -0.010895914398133755f, -0.07254764437675476f, -0.05238429456949234f, -0.015199422836303711f, -0.04921198636293411f, -0.03804994374513626f, -0.05018851161003113f, -0.04108400642871857f, -0.06128440797328949f, -0.02529197745025158f, -0.05018223077058792f, -0.035049814730882645f, 0.002469069557264447f, -0.06196638196706772f, -0.014999019913375378f, -0.007325969636440277f, 0.0054173762910068035f, 0.004944181535393f, 0.01616557314991951f, 0.12066421657800674f, 0.13011570274829865f, 0.18886952102184296f, 0.16478370130062103f, 0.18912041187286377f, 0.1469474732875824f, 0.10331267863512039f, 0.1147293969988823f, 0.023644208908081055f, -0.028605591505765915f, -0.06009553745388985f, -0.07838709652423859f, -0.0838385671377182f, -0.10402950644493103f, -0.05095677077770233f, -0.04074646905064583f, -0.032720040529966354f, 0.000183807234861888f, -0.004662960302084684f, 0.00014512246707454324f, -0.03205869719386101f, -0.021993272006511688f, -0.006736471317708492f, -0.019733434543013573f, -0.005182917695492506f, 0.012354103848338127f, 0.012777971103787422f, 0.06344110518693924f, 0.1715015023946762f, 0.14375190436840057f, 0.1153777465224266f, 0.16119371354579926f, 0.07764457166194916f, 0.14036361873149872f, 0.06709572672843933f, 0.03614449501037598f, 0.04134317487478256f, -0.04110129922628403f, -0.08251488208770752f, -0.10289587825536728f, -0.1501331478357315f, -0.15633326768875122f, -0.13804610073566437f, -0.09074201434850693f, -0.016085654497146606f, 0.004432705231010914f, -0.06348758190870285f, -0.006456766743212938f, -0.0511741116642952f, -0.01596503145992756f, -0.02349616400897503f, -0.01302348542958498f, -6.470853986684233e-05f, 0.02260442078113556f, 0.032621439546346664f, 0.08444154262542725f, 0.09062202274799347f, 0.0948077067732811f, 0.09629923105239868f, 0.10282375663518906f, 0.09126921743154526f, 0.07159537076950073f, 0.09092902392148972f, 0.156420037150383f, 0.1083347424864769f, 0.07019445300102234f, 0.012478049844503403f, 0.017689025029540062f, -0.01955079287290573f, -0.06745986640453339f, -0.1222459077835083f, -0.09970904886722565f, -0.06278504431247711f, -0.0005429945304058492f, -0.05683044344186783f, -0.061867211014032364f, 0.004925962537527084f, -0.04185735806822777f, -0.03268532454967499f, 0.0390973798930645f, 0.0399613231420517f, 0.07187557965517044f, 0.07100911438465118f, 0.05004294589161873f, 0.06873994320631027f, 0.07483796775341034f, -0.0022209223825484514f, 0.00581355532631278f, 0.02281167358160019f, 0.05075252801179886f, 0.035802096128463745f, 0.08865029364824295f, 0.01107614766806364f, 0.014197118580341339f, -0.018530672416090965f, -0.04862796515226364f, -0.02291988581418991f, -0.09412799030542374f, -0.2150081992149353f, -0.10539334267377853f, -0.041093096137046814f, -0.04858803376555443f, -0.013349097222089767f, 0.005312666762620211f, 0.007804454769939184f, -0.005831247195601463f, -0.02346491813659668f, 0.0702013298869133f, 0.08284120261669159f, 0.0861344262957573f, 0.06170261651277542f, 0.040795065462589264f, 0.01156954001635313f, -0.029215659946203232f, 0.0711655393242836f, -0.008848518133163452f, 0.10554274171590805f, 0.01652289554476738f, -0.04162381961941719f, 0.011258887127041817f, -0.15063880383968353f, -0.03169293701648712f, -0.05977926775813103f, -0.09171236306428909f, 0.018370965495705605f, 0.010473313741385937f, -0.19915351271629333f, -0.1826113760471344f, -0.0968518927693367f, -0.03208042308688164f, -0.043393030762672424f, -0.04901650547981262f, -0.05343204364180565f, -0.051751453429460526f, -0.03592585027217865f, 0.10951168835163116f, 0.06171859800815582f, 0.050229914486408234f, 0.036262087523937225f, 0.041468750685453415f, 0.007743455935269594f, 0.13823555409908295f, 0.06872160732746124f, -0.029649801552295685f, -0.03607509285211563f, 0.03558812662959099f, 0.035285841673612595f, -0.04794330522418022f, 0.028172239661216736f, -0.09821262955665588f, 0.09188196063041687f, 0.014746367000043392f, -0.022055892273783684f, -0.022844428196549416f, -0.09423737227916718f, -0.19499702751636505f, -0.08981750160455704f, -0.0509384423494339f, 0.0021862657740712166f, -0.0428389236330986f, -0.008107827976346016f, -0.022086359560489655f, -0.013240201398730278f, 0.08407353609800339f, 0.09369401633739471f, 0.02075798250734806f, -0.01326655875891447f, -0.060775239020586014f, 0.061342835426330566f, 0.08705942332744598f, 0.02155188098549843f, 0.009892674162983894f, 0.0569070465862751f, 0.11016444861888885f, 0.10115635395050049f, 0.0685463473200798f, 0.01883617229759693f, 0.051849059760570526f, 0.02011837251484394f, -0.010070959106087685f, -0.056807637214660645f, -0.009555128403007984f, -0.09315493702888489f, -0.15424996614456177f, -0.0756489560008049f, -0.04196076840162277f, -0.0071993665769696236f, -0.030223330482840538f, -0.052468642592430115f, -0.033111799508333206f, -0.006437360309064388f, -0.003906159196048975f, 0.10263507813215256f, 0.11808056384325027f, -0.03541503846645355f, 0.0026515808422118425f, -0.06889272481203079f, -0.024882517755031586f, -0.007555907592177391f, -0.021646087989211082f, -0.14152629673480988f, -0.04777750000357628f, -0.06147889420390129f, 0.010914592072367668f, 0.08238039910793304f, 0.05190235748887062f, -0.037214260548353195f, 0.0007893383735790849f, -0.040235839784145355f, -0.011790258809924126f, -0.07136000692844391f, -0.1204504445195198f, -0.026165833696722984f, -0.05737381428480148f, -0.055623769760131836f, -0.005870929453521967f, -0.018494024872779846f, -0.02548455260694027f, -0.04094025865197182f, -0.0670270174741745f, -0.061432112008333206f, -0.10335847735404968f, -0.1899767369031906f, -0.20067709684371948f, -0.25302398204803467f, -0.33277061581611633f, -0.3238602876663208f, -0.3479326665401459f, -0.39737942814826965f, -0.29736536741256714f, -0.24822881817817688f, -0.07987498492002487f, -0.14689119160175323f, -0.04296766594052315f, 0.09516185522079468f, -0.04574347287416458f, -0.03661471977829933f, -0.0067597366869449615f, -0.1029144823551178f, -0.051774762570858f, -0.03150413557887077f, -0.025980403646826744f, -0.05107245221734047f, -0.01940351165831089f, -0.021996617317199707f, -0.05097723752260208f, -0.06229735538363457f, -0.12409995496273041f, -0.20745931565761566f, -0.39732223749160767f, -0.40575507283210754f, -0.2476174682378769f, -0.26590731739997864f, -0.2830374538898468f, -0.28865015506744385f, -0.25271931290626526f, -0.2150365263223648f, -0.23432518541812897f, -0.25361043214797974f, -0.13740603625774384f, -0.13684068620204926f, -0.12262868881225586f, 0.07288969308137894f, -0.02529456652700901f, -0.004554326646029949f, -0.04485592246055603f, -0.09780284762382507f, 0.04164155200123787f, 0.11615406721830368f, 0.040220245718955994f, -0.05436139553785324f, -0.046145711094141006f, -0.05333929508924484f, -0.022258400917053223f, -0.06618143618106842f, -0.20387879014015198f, -0.3511982560157776f, -0.4567173421382904f, -0.3635840117931366f, -0.1901518553495407f, -0.12817353010177612f, -0.0623561292886734f, 0.04598170518875122f, -0.004275109153240919f, 0.05865989997982979f, -0.011967163532972336f, -0.11653745919466019f, -0.08993148058652878f, -0.04750169813632965f, -0.07472868263721466f, -0.08935888856649399f, -0.06748369336128235f, -0.018775993958115578f, -0.044640716165304184f, -0.04457397386431694f, 0.14485801756381989f, 0.14744554460048676f, 0.07730139046907425f, -0.008944098837673664f, -0.05810892954468727f, 0.00043906414066441357f, -0.0011721672490239143f, -0.043845031410455704f, -0.15382733941078186f, -0.26237019896507263f, -0.1642557978630066f, -0.04111139848828316f, -0.04416269436478615f, -0.048038143664598465f, 0.02593349665403366f, 0.024874623864889145f, 0.004641729407012463f, 0.1662318855524063f, 0.03535773605108261f, -0.038061801344156265f, -0.018328635022044182f, -0.11680445820093155f, 0.008753831498324871f, -0.04642996937036514f, -0.00020336225861683488f, -0.10046636313199997f, -0.04298168048262596f, 0.030619123950600624f, 0.14666594564914703f, 0.20518659055233002f, 0.07668689638376236f, -0.047503892332315445f, -0.058113425970077515f, -0.04670921713113785f, -0.01941649615764618f, 0.014510163106024265f, 0.032464124262332916f, 0.05824584141373634f, 0.12562789022922516f, 0.060116056352853775f, 0.02865879237651825f, -0.0003601447679102421f, -0.004566405434161425f, 0.038270145654678345f, -0.003050787840038538f, 0.11622249335050583f, 0.06952480971813202f, 0.015655679628252983f, -0.01646607182919979f, -0.07352058589458466f, -0.05763590335845947f, -0.04794767498970032f, -0.13062408566474915f, -0.05613143742084503f, -0.13254769146442413f, -0.020960381254553795f, 0.25287044048309326f, 0.23337964713573456f, 0.07208035886287689f, 0.007894529029726982f, -0.003716182429343462f, -0.0017115246737375855f, -0.045752186328172684f, 0.06331159919500351f, 0.13973064720630646f, 0.1428920328617096f, 0.17893263697624207f, 0.021831056103110313f, -0.06624415516853333f, 0.07311993092298508f, 0.08640367537736893f, 0.09461136907339096f, 0.14689011871814728f, 0.18037278950214386f, 0.08913353830575943f, 0.008966580033302307f, 0.08891379088163376f, 0.132886603474617f, 0.03462093323469162f, 0.010690629482269287f, -0.06563689559698105f, 0.1165521889925003f, 0.07351984828710556f, 0.061467334628105164f, 0.2547948658466339f, 0.3854867219924927f, 0.17239944636821747f, -0.036587681621313095f, -0.024962060153484344f, -0.014367691241204739f, -0.008804232813417912f, 0.10944245010614395f, 0.2084702104330063f, 0.14799432456493378f, 0.13901887834072113f, 0.052820589393377304f, 0.026459474116563797f, 0.08108359575271606f, 0.14477300643920898f, 0.18864375352859497f, 0.1580599993467331f, 0.1692865490913391f, 0.03832753375172615f, 0.07993372529745102f, 0.02256941609084606f, -0.016929656267166138f, 0.02712906338274479f, -0.004176715388894081f, -0.006316382437944412f, 0.057085439562797546f, 0.0607655867934227f, 0.0771394819021225f, 0.23775112628936768f, 0.37377235293388367f, 0.09361238777637482f, -0.04801439121365547f, -0.01586264558136463f, -0.0495494082570076f, -0.05080357566475868f, 0.02630184218287468f, 0.201814666390419f, 0.2266700714826584f, 0.0970969945192337f, 0.2077513188123703f, 0.04836002737283707f, 0.03438367694616318f, 0.13455496728420258f, 0.05396927520632744f, 0.19511519372463226f, 0.1321430504322052f, 0.100980743765831f, -0.056136347353458405f, 0.06786733865737915f, 0.1197352483868599f, 0.08027765154838562f, 0.029142366722226143f, -0.02359667420387268f, 0.06787505745887756f, 0.1303112655878067f, 0.18545517325401306f, 0.33521053194999695f, 0.2523380517959595f, -0.015931805595755577f, -0.006197282578796148f, -0.009781591594219208f, -0.05249284580349922f, -0.059957243502140045f, -0.006789557170122862f, 0.11808397620916367f, 0.11376406997442245f, 0.04957350343465805f, 0.20239923894405365f, 0.13759782910346985f, 0.13352982699871063f, 0.1613747924566269f, 0.11412951350212097f, 0.09143217653036118f, 0.21821260452270508f, 0.07413145899772644f, 0.09585706889629364f, 0.1110541820526123f, 0.10527586936950684f, 0.028353027999401093f, -0.013256469741463661f, 0.04412674531340599f, 0.14939188957214355f, 0.16254177689552307f, 0.1418551206588745f, 0.19294072687625885f, 0.15512306988239288f, 0.010180815123021603f, 0.0049340263940393925f, -0.042147837579250336f, -0.05441467836499214f, 0.010443589650094509f, -0.0010031933197751641f, 0.17255106568336487f, 0.12004135549068451f, 0.13201069831848145f, 0.23140008747577667f, 0.17354923486709595f, 0.17495211958885193f, 0.16119176149368286f, 0.2089807391166687f, 0.10668766498565674f, 0.04318010061979294f, 0.01010625995695591f, 0.036888279020786285f, 0.06068694591522217f, -0.05890120565891266f, 0.06096576899290085f, 0.15014174580574036f, 0.11848922818899155f, 0.15471285581588745f, 0.17027217149734497f, 0.12640754878520966f, 0.12837177515029907f, 0.08835038542747498f, 0.025136444717645645f, -0.04335881024599075f, -0.022644829005002975f, -0.03649316355586052f, -0.014957593753933907f, 0.049481261521577835f, 0.047263264656066895f, 0.08694354444742203f, 0.1118607223033905f, 0.08914028853178024f, -0.018245955929160118f, 0.14566142857074738f, 0.07349333167076111f, 0.11126019805669785f, 0.02745157480239868f, 0.06232326850295067f, 0.029525507241487503f, -0.03472185879945755f, 0.049739982932806015f, 0.1353626400232315f, 0.13811686635017395f, 0.18893775343894958f, 0.06648675352334976f, 0.07257716357707977f, 0.14735151827335358f, 0.21470336616039276f, 0.11606018245220184f, 0.035484641790390015f, -0.009371030144393444f, -0.019497768953442574f, 0.002359644742682576f, -0.003996753133833408f, -0.006972834467887878f, 0.03453468158841133f, 0.08853087574243546f, 0.06512600183486938f, 0.12019218504428864f, 0.17133837938308716f, 0.17424876987934113f, 0.16392849385738373f, 0.07472412288188934f, 0.09647756069898605f, 0.02092478983104229f, 0.006036507431417704f, -0.023222465068101883f, -0.06245458871126175f, 0.0016220498364418745f, -0.007342182099819183f, 0.12684762477874756f, 0.09736712276935577f, 0.12946760654449463f, 0.15038378536701202f, 0.18105997145175934f, 0.12732458114624023f, 0.05003169924020767f, -0.0002752312575466931f, -0.009157238528132439f, 0.0035706167109310627f, -0.026355348527431488f, -0.023914562538266182f, -7.298279524547979e-05f, -0.06700460612773895f, -0.012093039229512215f, -0.030795246362686157f, 0.011011525988578796f, 0.05323496460914612f, 0.0714106559753418f, 0.05663881450891495f, -0.01005331426858902f, 0.09043710678815842f, 0.07992502301931381f, -0.03798351064324379f, 0.006788896396756172f, -0.048910219222307205f, -0.03316502645611763f, 0.001995079917833209f, 0.14077973365783691f, 0.1512146294116974f, 0.13987652957439423f, 0.16804729402065277f, 0.12739208340644836f, 0.08259452134370804f, 0.06802088022232056f, -0.004631928633898497f, -0.06364962458610535f, -0.053093962371349335f, -0.027803100645542145f, -0.044738344848155975f, -0.0012736114440485835f, -0.052899956703186035f, -0.04828730970621109f, -0.09407159686088562f, -0.16218824684619904f, -0.16920693218708038f, -0.11757555603981018f, -0.06632872670888901f, -0.09579493850469589f, -0.10900995135307312f, 0.020696282386779785f, -0.03141443431377411f, 0.09728499501943588f, 0.015809500589966774f, -0.0020131028722971678f, 0.030678842216730118f, 0.0704287439584732f, 0.020687062293291092f, 0.007910246029496193f, 0.05250701308250427f, -0.011192996054887772f, 0.011506129987537861f, 0.04464952275156975f, 0.013737677596509457f, -0.0038385053630918264f, -0.019830627366900444f, -0.05514075234532356f, -0.01730402559041977f, -0.04893988370895386f, -0.03396834433078766f, -0.07980919629335403f, -0.058621231466531754f, -0.09500700980424881f, -0.08381735533475876f, -0.1297353357076645f, -0.1839204877614975f, -0.16864432394504547f, -0.1608542501926422f, -0.11334390938282013f, -0.08004438877105713f, -0.0694536492228508f, -0.037938252091407776f, -0.05673127993941307f, -0.04881524667143822f, -0.0758497416973114f, -0.10076761990785599f, -0.10098948329687119f, -0.0656723827123642f, -0.07228826731443405f, -0.026620667427778244f, -0.05567711219191551f, -0.05215805396437645f, -0.04824903979897499f, -0.05636097490787506f, 0.0025230185128748417f, -0.042556531727313995f, -0.048753295093774796f, -0.041158318519592285f, -0.018468253314495087f, -0.03000669553875923f, -0.047385916113853455f, -0.03533205762505531f, -0.05444622412323952f, -0.006645857822149992f, -0.06835459172725677f, -0.08286259323358536f, -0.0280388705432415f, -0.022540723904967308f, -0.033608850091695786f, -0.07017023116350174f, -0.07510042935609818f, -0.02603929117321968f, -0.043591756373643875f, -0.020789887756109238f, -0.07023987174034119f, -0.04366310313344002f, -0.02894347719848156f, -0.03879309073090553f, -0.000907099456526339f, -0.05509994924068451f, -0.02574136108160019f, -0.007715301122516394f, -0.03160230815410614f, 0.006119030062109232f, -0.05059436336159706f, -0.016454489901661873f, -0.004123258404433727f, 0.00654630409553647f, -0.04223277047276497f, -0.03413456305861473f, -0.04197966307401657f, -0.022364865988492966f, -0.006902584806084633f, -0.015928983688354492f, -0.010249392129480839f, -0.018552260473370552f, -0.027582988142967224f, -0.025153258815407753f, -0.026821130886673927f, -0.04859471321105957f, -0.035366322845220566f, -0.001646780059672892f, -0.038373786956071854f, -0.0009573398274369538f, -0.06110147386789322f, -0.015621737577021122f, -0.025697534903883934f, -0.051245976239442825f, -0.0627293735742569f, -0.009705038741230965f},
	{-0.06092005595564842f, -0.057532425969839096f, -0.04280262812972069f, 0.004496898036450148f, -0.004850131459534168f, -0.027318939566612244f, -0.019171420484781265f, -0.014264032244682312f, -0.04243388772010803f, -0.037982456386089325f, -0.02676282450556755f, -0.025130342692136765f, -0.0012319206725805998f, -0.024751771241426468f, -0.031964823603630066f, -0.052167873829603195f, 0.0017501604743301868f, -0.010679168626666069f, -0.013863805681467056f, -0.023830505087971687f, -0.003281465033069253f, -0.037947364151477814f, -0.01707114465534687f, -0.042847976088523865f, -0.04060889780521393f, -0.05861082300543785f, -0.04076579213142395f, 0.0031390185467898846f, -0.06029895693063736f, -0.06357427686452866f, -0.016445139423012733f, -0.02875068224966526f, -0.005316105671226978f, -0.06425994634628296f, -0.053324125707149506f, -0.06362726539373398f, -0.015353111550211906f, -0.021472103893756866f, -0.03793298453092575f, -0.0492909736931324f, -0.04197460412979126f, -0.06264647841453552f, -0.061528194695711136f, -0.05381672829389572f, -0.02995174564421177f, -0.009579602628946304f, -0.017105048522353172f, -0.05082959681749344f, -0.041374146938323975f, -0.022477194666862488f, -0.010530484840273857f, -0.024230124428868294f, -0.015185165219008923f, -0.06134029105305672f, -0.026528337970376015f, -0.016608314588665962f, -0.031425826251506805f, -0.02649300917983055f, -0.01722806878387928f, -0.055692996829748154f, -0.008234754204750061f, -0.00643163314089179f, -0.05409136787056923f, -0.004755144473165274f, -0.048247698694467545f, -0.014062286354601383f, -0.05460727959871292f, -0.028798267245292664f, 0.005629612598568201f, -0.01964246854186058f, -0.02578354999423027f, -0.0463508702814579f, -0.018284576013684273f, -0.04965905845165253f, -0.04970652610063553f, -0.0007646387093700469f, -0.026281658560037613f, -0.06399285048246384f, -0.04598813131451607f, -0.011325293220579624f, -0.050279129296541214f, -0.031273335218429565f, -0.04201781749725342f, -0.018609819933772087f, -0.022750461474061012f, 0.005184206645935774f, -0.01184704527258873f, -0.027416028082370758f, -0.028013264760375023f, -0.02659698575735092f, -0.006299869157373905f, 0.02389836497604847f, -0.01674581505358219f, 0.0017978197429329157f, 0.023637622594833374f, 0.09227724373340607f, 0.13568663597106934f, 0.08728824555873871f, 0.17575065791606903f, 0.1690712422132492f, 0.0850745216012001f, 0.10556435585021973f, 0.0946006029844284f, 0.029174089431762695f, 0.08699027448892593f, -0.04655357822775841f, -0.0509166456758976f, -0.048717714846134186f, -0.051859885454177856f, -0.05211714282631874f, -0.025586742907762527f, -0.026891358196735382f, 0.00013305847824085504f, -0.05598849058151245f, -0.03752661868929863f, -0.05082489922642708f, 0.005317011382430792f, 0.018236897885799408f, 0.06582020968198776f, 0.1242871806025505f, 0.15333743393421173f, 0.18064038455486298f, 0.18872830271720886f, 0.19467955827713013f, 0.20065808296203613f, 0.23660436272621155f, 0.13700588047504425f, 0.17258796095848083f, 0.17273841798305511f, 0.10554944723844528f, 0.13853837549686432f, 0.04980327934026718f, 0.00934373028576374f, -0.08543357253074646f, -0.055535998195409775f, -0.07076255977153778f, -0.039789438247680664f, -0.05789163336157799f, -0.0032072309404611588f, -0.06048881635069847f, -0.04307146742939949f, -0.02434755302965641f, -0.036003097891807556f, -0.005056195892393589f, 0.03210486099123955f, 0.1588941365480423f, 0.1498183310031891f, 0.15423713624477386f, 0.08802495151758194f, 0.08372437208890915f, 0.10873410850763321f, 0.04752068966627121f, 0.0429229661822319f, 0.0285602156072855f, 0.008198735304176807f, 0.0827173963189125f, 0.1517668217420578f, -0.054321739822626114f, 0.01976402848958969f, 0.062115978449583054f, -0.0030020049307495356f, -0.08902236819267273f, -0.09259823709726334f, -0.10431817173957825f, -0.06072097644209862f, -0.018548693507909775f, -0.021583810448646545f, -0.009426387958228588f, 0.0030532539822161198f, -0.021575307473540306f, -0.03285454958677292f, 0.01610831543803215f, 0.05576372519135475f, 0.08193511515855789f, 0.13484087586402893f, 0.04622219502925873f, 0.06599178910255432f, 0.13628870248794556f, 0.12075923383235931f, 0.06296201795339584f, 0.017690055072307587f, 0.1606212556362152f, 0.07130411267280579f, 0.07190349698066711f, 0.10745792090892792f, 0.031068548560142517f, 0.1168530285358429f, -0.053462788462638855f, 0.026058489456772804f, 0.03233881667256355f, -0.07816370576620102f, -0.12389787286520004f, -0.07717835903167725f, -0.06354837864637375f, -0.06556051969528198f, -0.05181077495217323f, -0.013272351585328579f, -0.05015277490019798f, 0.0037824418395757675f, 0.04513658955693245f, 0.14260388910770416f, 0.17812994122505188f, 0.09568114578723907f, 0.0584288127720356f, 0.0005030446336604655f, 0.07150204479694366f, -2.575892176537309e-05f, -0.004493784159421921f, 0.10857333242893219f, 0.0316130556166172f, 0.13343863189220428f, 0.12287962436676025f, 0.016286185011267662f, 0.048979975283145905f, -0.009680167771875858f, 0.06459948420524597f, 0.041361164301633835f, -0.06535307317972183f, -0.03577996417880058f, -0.12318342924118042f, -0.09428544342517853f, -0.08237317204475403f, -0.058464232832193375f, -0.047064196318387985f, -0.004456213675439358f, -0.043393779546022415f, -0.017180707305669785f, 0.003666732693091035f, 0.17243613302707672f, 0.1014336571097374f, 0.03667687624692917f, 0.04982364922761917f, -0.01776544190943241f, -0.026800934225320816f, 0.05515260994434357f, 0.02791695110499859f, 0.06956963241100311f, 0.07429828494787216f, 0.09709076583385468f, 0.11192817240953445f, 0.03927057981491089f, 0.06011620908975601f, 0.13574150204658508f, 0.050194382667541504f, 0.05635436996817589f, 0.048344533890485764f, 0.07852441817522049f, -0.21181432902812958f, -0.16355538368225098f, -0.044809211045503616f, -0.014565656892955303f, -0.03722309693694115f, -0.058452755212783813f, -0.04936690255999565f, -0.030292993411421776f, 0.0299974475055933f, 0.18255826830863953f, 0.06845270842313766f, 0.07972251623868942f, 0.07653950899839401f, 0.04583032801747322f, 0.004644888453185558f, -0.05819566547870636f, -0.16397370398044586f, -0.09648410230875015f, -0.04855279251933098f, 0.15548795461654663f, 0.2218915969133377f, 0.1361948847770691f, 0.08556321263313293f, 0.0668332427740097f, 0.12920744717121124f, 0.1488688439130783f, 0.09010888636112213f, 0.1249174028635025f, -0.08642769604921341f, -0.13116790354251862f, -0.06189514324069023f, -0.00865977443754673f, -0.043522682040929794f, -0.041239555925130844f, 0.0020663784816861153f, -0.013454081490635872f, 0.07331154495477676f, 0.06325903534889221f, -0.03454725816845894f, -0.014342714101076126f, -0.048789046704769135f, -0.13371996581554413f, -0.21914061903953552f, -0.20241370797157288f, -0.23628337681293488f, -0.22694863379001617f, 0.014979842118918896f, 0.05754343420267105f, 0.08910901099443436f, 0.13329897820949554f, 0.1138824075460434f, 0.13463589549064636f, 0.08894066512584686f, 0.16881130635738373f, 0.0801568478345871f, 0.04114389047026634f, -0.06411455571651459f, -0.10884575545787811f, -0.031279031187295914f, -0.03675266355276108f, -0.05686940252780914f, -0.04847665876150131f, -0.044282227754592896f, -0.054902784526348114f, 0.020898785442113876f, 0.059610720723867416f, -0.09123539179563522f, -0.13749051094055176f, -0.23674142360687256f, -0.23416078090667725f, -0.24449697136878967f, -0.15207542479038239f, -0.08527614921331406f, -0.04362015426158905f, 0.08522652089595795f, 0.09705616533756256f, 0.04924461990594864f, -0.002244118368253112f, 0.15304473042488098f, 0.06894972920417786f, 0.10722637921571732f, 0.13502176105976105f, -0.029224220663309097f, -0.014986507594585419f, -0.06051723286509514f, -0.09475582093000412f, -0.06164390221238136f, -0.05254479497671127f, -0.022915204986929893f, -0.05683010444045067f, -0.005606646649539471f, 0.003730037249624729f, -0.023969527333974838f, -0.024088839069008827f, -0.15189248323440552f, -0.19729501008987427f, -0.16120484471321106f, -0.1752540022134781f, -0.05016208812594414f, 0.05390407145023346f, -0.03875923156738281f, 0.05712516978383064f, 0.037536341696977615f, 0.18651458621025085f, 0.07709000259637833f, 0.06568343937397003f, 0.023242468014359474f, 0.07406602054834366f, -0.015775436535477638f, -0.045504383742809296f, -0.1920335739850998f, -0.16637398302555084f, -0.12088098376989365f, -0.06513796001672745f, -0.03968781605362892f, -0.03413175791501999f, -0.026119397953152657f, -0.03834562376141548f, -0.030856112018227577f, -0.03926340490579605f, -0.05773714557290077f, -0.05031484737992287f, -0.15922336280345917f, -0.18556037545204163f, -0.1770789623260498f, -0.11899007856845856f, -0.025388183072209358f, -0.06041695922613144f, -0.09989145398139954f, 0.05123274773359299f, 0.18165627121925354f, 0.12100592255592346f, -0.055800892412662506f, 0.054662883281707764f, 0.04279597848653793f, 0.09859010577201843f, -0.04490641877055168f, -0.17802368104457855f, -0.206700399518013f, -0.24156272411346436f, -0.09420774132013321f, -0.031577128916978836f, -0.024759603664278984f, -0.015101475641131401f, -0.06489391624927521f, -0.010627277195453644f, -0.0212037805467844f, -0.009608346037566662f, -0.029445748776197433f, -0.06733853369951248f, -0.1174691766500473f, -0.1723925918340683f, -0.15024292469024658f, -0.07531318068504333f, -0.034033920615911484f, -0.04686802625656128f, -0.07484634220600128f, 0.08349896967411041f, 0.04193747788667679f, 0.07246756553649902f, 0.029225297272205353f, 0.0029532930348068476f, 0.013978972099721432f, 0.04349173977971077f, -0.07222986221313477f, -0.10607526451349258f, -0.04250217229127884f, -0.1249559223651886f, -0.05507049337029457f, -0.04781299829483032f, -0.019094031304121017f, -0.004474666900932789f, -0.03516169637441635f, -0.0611286424100399f, 0.01152881234884262f, -0.004370598122477531f, -0.04207320511341095f, 0.015605824999511242f, -0.05569678172469139f, -0.08940678089857101f, -0.1222919300198555f, -0.1738046556711197f, -0.11917632818222046f, -0.10122153162956238f, 0.00029097814694978297f, 0.040491167455911636f, 0.04458657279610634f, 0.10971730202436447f, 0.0689685195684433f, -0.003911810927093029f, -0.0038898871280252934f, -0.08686822652816772f, 0.05570916086435318f, 0.1376747190952301f, 0.07906787097454071f, 0.0674644410610199f, 0.060526467859745026f, 0.029119199141860008f, -0.021652743220329285f, -0.059415508061647415f, -0.06150805577635765f, -0.05702579393982887f, -0.05323788523674011f, 0.013514149934053421f, 0.016659587621688843f, 0.08321994543075562f, 0.03895678371191025f, -0.068966805934906f, -0.10033535957336426f, -0.20636940002441406f, -0.09554902464151382f, -0.09664738178253174f, -0.017600612714886665f, 0.0146256685256958f, 0.13226589560508728f, 0.017068324610590935f, -0.07323544472455978f, -0.16075745224952698f, -0.046807609498500824f, 0.1568102091550827f, 0.18011368811130524f, 0.07306977361440659f, 0.06904082745313644f, 0.1445406973361969f, 0.164507195353508f, 0.0813734382390976f, -0.041210856288671494f, -0.007204774301499128f, -0.03798181191086769f, -0.033813897520303726f, -0.03438263759016991f, -0.024998391047120094f, 0.11540083587169647f, 0.1436910629272461f, 0.06328246742486954f, -0.012444821186363697f, -0.0221409909427166f, -0.09665719419717789f, -0.23974590003490448f, -0.27490541338920593f, -0.23755206167697906f, -0.14771822094917297f, -0.0942377969622612f, -0.20245741307735443f, -0.1478421688079834f, -0.0019864195492118597f, 0.13857416808605194f, 0.03706730529665947f, 0.18211618065834045f, -0.0023653097450733185f, 0.06658996641635895f, 0.18575723469257355f, 0.14353272318840027f, -0.011694405227899551f, -0.08162860572338104f, -0.04713459685444832f, -0.02576582506299019f, 0.005011714994907379f, -0.011305490508675575f, -0.012691283598542213f, 0.16577932238578796f, 0.15323884785175323f, 0.1425972580909729f, 0.059142328798770905f, -0.0755738839507103f, -0.03332698345184326f, -0.18525877594947815f, -0.20184241235256195f, -0.20432741940021515f, -0.23496411740779877f, -0.17578086256980896f, -0.14509394764900208f, 0.06678692251443863f, 0.19143244624137878f, 0.10487160086631775f, 0.0901629850268364f, 0.09773806482553482f, 0.025643808767199516f, 0.19622845947742462f, 0.2178800106048584f, 0.05417761579155922f, -0.09361526370048523f, -0.08923815190792084f, -0.047255851328372955f, -0.024060558527708054f, -0.0424017608165741f, -0.01866912469267845f, 0.00958377867937088f, 0.17233723402023315f, 0.16979433596134186f, 0.19946880638599396f, 0.08349679410457611f, 0.006146061234176159f, 0.012749877758324146f, -0.027993833646178246f, -0.04554156959056854f, -0.12285646796226501f, -0.11542532593011856f, -0.03732777759432793f, -0.00226731039583683f, 0.017890946939587593f, 0.06633602827787399f, 0.15760143101215363f, 0.12244417518377304f, 0.09975246340036392f, 0.04657212644815445f, 0.12981127202510834f, 0.058494411408901215f, 0.027819914743304253f, -0.09850389510393143f, -0.03982773423194885f, 0.0018303563119843602f, -0.05683797597885132f, -0.02821872942149639f, -0.0354120209813118f, -0.04029849171638489f, 0.16659781336784363f, 0.19442135095596313f, 0.1314941793680191f, 0.1834729164838791f, 0.11382520943880081f, 0.11166733503341675f, 0.18712085485458374f, -0.007845918647944927f, -0.07311972975730896f, -0.20629127323627472f, -0.05783076584339142f, 0.05526149272918701f, -0.005107344128191471f, 0.06588184088468552f, 0.08539194613695145f, 0.13005034625530243f, 0.08327430486679077f, 0.14435599744319916f, 0.08841375261545181f, 0.026465175673365593f, -0.013612337410449982f, -0.06519002467393875f, -0.060510147362947464f, -0.016592038795351982f, -0.02703239396214485f, -0.05273200944066048f, -0.01131771132349968f, 0.031058628112077713f, 0.09628914296627045f, 0.0967411994934082f, 0.07172179967164993f, 0.10596269369125366f, 0.09277546405792236f, 0.09484817832708359f, -0.0983889177441597f, -0.06219165399670601f, -0.05467797815799713f, -0.018877074122428894f, -0.025032520294189453f, -0.03665851056575775f, 0.01533677987754345f, 0.059385307133197784f, 0.0406428724527359f, 0.10861702263355255f, 0.13968870043754578f, 0.007582626771181822f, -0.03270234540104866f, -0.043491754680871964f, -0.07859358191490173f, -0.07663939893245697f, -0.057658907026052475f, -0.018027041107416153f, -0.03188924863934517f, -0.040379468351602554f, -0.0008544403244741261f, 0.015396058559417725f, 0.030947543680667877f, 0.06493241339921951f, 0.023774856701493263f, 0.05025390908122063f, 0.017929570749402046f, -0.01473292987793684f, 0.0007689950871281326f, 0.008308793418109417f, 0.0772453248500824f, -0.04025183245539665f, -0.038703400641679764f, -0.057488828897476196f, 0.048214517533779144f, -0.0008924863068386912f, 0.050790935754776f, 0.050260793417692184f, 0.10114026069641113f, 0.03353595361113548f, -0.0090409517288208f, -0.03856596350669861f, -0.07245805114507675f, -0.02962123602628708f, -0.028871608898043633f, -0.05958828330039978f, -0.009617863222956657f, 1.7314299611825845e-06f, 0.004673150833696127f, 0.01755756512284279f, 0.04287142679095268f, 0.11985263973474503f, 0.13519719243049622f, 0.13771040737628937f, 0.11458644270896912f, -0.029738372191786766f, 0.07546001672744751f, 0.0770251452922821f, 0.05275724083185196f, -0.06784097850322723f, 0.029498161748051643f, -0.06877636909484863f, -0.049898527562618256f, -0.10299781709909439f, 0.03530168533325195f, 0.11864203959703445f, 0.020423872396349907f, -0.01192430779337883f, -0.05217115208506584f, -0.09171426296234131f, -0.030481606721878052f, -0.07671216130256653f, -0.048430729657411575f, 0.0035628490149974823f, -0.03437391668558121f, -0.050791338086128235f, -0.020880160853266716f, -0.02117384783923626f, 0.00315570505335927f, 0.08246520161628723f, 0.13705196976661682f, 0.17919591069221497f, 0.19093722105026245f, 0.16742543876171112f, 0.11405294388532639f, 0.1704043745994568f, 0.15547186136245728f, 0.10991834104061127f, 0.17712126672267914f, 0.11796065419912338f, 0.05606551840901375f, 0.07578114420175552f, 0.04555895924568176f, -0.0389547124505043f, -0.05997864529490471f, -0.025354230776429176f, -0.015088443644344807f, -0.016196120530366898f, -0.031067384406924248f, -0.07411692291498184f, -0.029769880697131157f, -0.06121835857629776f, -0.008698849007487297f, -0.013904627412557602f, 0.0018211751012131572f, -0.03945869579911232f, -0.0279389601200819f, -0.04356737062335014f, 0.0377391017973423f, 0.07555094361305237f, 0.142298623919487f, 0.2112688571214676f, 0.23073610663414001f, 0.24466457962989807f, 0.2525975704193115f, 0.2642975449562073f, 0.23722736537456512f, 0.12078887224197388f, 0.05240612104535103f, 0.08536305278539658f, 0.026605863124132156f, -0.017174076288938522f, -0.006570699159055948f, -0.025864826515316963f, -0.03479072451591492f, -0.03600412607192993f, 0.004138488322496414f, -0.01443108543753624f, -0.010431540198624134f, -0.01811220869421959f, 0.006808541715145111f, -0.024084534496068954f, -0.06228793412446976f, -0.04151476174592972f, 0.0028425210621207952f, 0.003080820431932807f, -0.015810323879122734f, -0.049727119505405426f, -0.00014529128384310752f, -0.04017452523112297f, -0.0008242701296694577f, -0.03333904966711998f, -0.037322089076042175f, 0.006774371024221182f, -0.023485098034143448f, -0.03789794445037842f, -0.02485436201095581f, 0.02924121916294098f, -0.028094112873077393f, 0.0070093171671032906f, -0.04343094304203987f, -0.025950247421860695f, -0.05046047270298004f, -0.02829110063612461f, -0.04907505214214325f, -0.03818122297525406f, -0.018323669210076332f, -0.04282103478908539f, -0.037155356258153915f, -0.007490847259759903f, -0.05460366979241371f, -0.034064844250679016f, 0.003260610159486532f, -0.05736226588487625f, -0.0639268085360527f, -0.026989184319972992f, -0.00772509491071105f, -0.04906405508518219f, -0.024257516488432884f, 0.0026736599393188953f, -0.05291100963950157f, -0.01600605994462967f, -0.056781042367219925f, -0.019589990377426147f, -0.020679712295532227f, -0.01934032514691353f, -0.021673055365681648f, -0.029021022841334343f, -0.011078634299337864f, -0.055737290531396866f, -0.0463268905878067f, -0.03976202756166458f, -0.05315579101443291f, -0.013012519106268883f, -0.049528904259204865f, -0.050491660833358765f, -0.06025435030460358f},
	{0.007961002178490162f, 0.06854017823934555f, 0.07116938382387161f, 0.016136106103658676f, 0.046173859387636185f, 0.0684163048863411f, 0.039970558136701584f, 0.011735311709344387f, 0.0020410961005836725f, 0.007272402290254831f, 0.05409500375390053f, 0.015528755262494087f, 0.02844947762787342f, 0.06541451066732407f, 0.0017163170268759131f, 0.06333273649215698f, 0.0399918332695961f, 0.04302771016955376f, 0.04789239540696144f, 0.063871830701828f, 0.024456044659018517f, 0.027616053819656372f, 0.03556293621659279f, 0.07039474695920944f, 0.04773607477545738f, 0.05009651184082031f, 0.018856683745980263f, 0.04396411404013634f, 0.05113838240504265f, 0.03465154394507408f, 0.06843087822198868f, 0.06710224598646164f, 0.0028445778880268335f, 0.019762637093663216f, 0.014654847793281078f, 9.113887790590525e-05f, -0.00048347178380936384f, 0.056991495192050934f, 0.029277563095092773f, -0.009292436763644218f, -0.020175335928797722f, -0.023407530039548874f, 0.04182237759232521f, 0.03091823309659958f, -0.003929401747882366f, 0.0411936454474926f, 0.008460452780127525f, 0.03941446915268898f, 0.025712553411722183f, 0.0642930269241333f, 0.001108166528865695f, 0.025339743122458458f, 0.0051881386898458f, 0.0264885351061821f, 0.005421403329819441f, 0.02374916709959507f, 0.03000025637447834f, 0.0639466643333435f, 0.002308906288817525f, 0.007309707812964916f, 0.03236827999353409f, 0.0049224430695176125f, 0.00045733375009149313f, 0.006995466537773609f, -0.010186401195824146f, -0.028314100578427315f, -0.022492457181215286f, -0.04205882549285889f, -0.07376811653375626f, -0.05029855668544769f, -0.05278971418738365f, -0.049465253949165344f, -0.09099102020263672f, -0.013502618297934532f, 0.014990458264946938f, -0.011660722084343433f, -0.004821643233299255f, 0.053942933678627014f, 0.001720952452160418f, 0.03254503011703491f, 0.009682820178568363f, 0.03963898867368698f, 0.024329928681254387f, 0.023529715836048126f, 0.018112599849700928f, 0.012186156585812569f, 0.006902755703777075f, 0.0682373046875f, 0.036059942096471786f, 0.03111668862402439f, -0.0027245767414569855f, 0.019137416034936905f, -0.07675100862979889f, -0.11541386693716049f, -0.11397091299295425f, -0.12471898645162582f, -0.1866205483675003f, -0.25259262323379517f, -0.1668463796377182f, -0.16419564187526703f, -0.16174902021884918f, -0.08865542709827423f, -0.04627373069524765f, -0.009005692787468433f, 0.023345734924077988f, 0.021918341517448425f, 0.02484058402478695f, 0.0672164186835289f, 0.05470128729939461f, 0.016890153288841248f, 0.04828573390841484f, 0.05892285704612732f, 0.023695295676589012f, 0.005846864078193903f, 0.03187942877411842f, 0.009517527185380459f, 0.05834762006998062f, 0.005778337828814983f, -0.019919652491807938f, -0.010703551582992077f, -0.03499920666217804f, -0.06394986808300018f, -0.1319742351770401f, -0.1673051416873932f, -0.17184950411319733f, -0.10924988985061646f, -0.15371008217334747f, -0.1748230904340744f, -0.11094596982002258f, -0.08921124786138535f, -0.08882161974906921f, 0.07400377094745636f, 0.09099087119102478f, 0.13449133932590485f, 0.16570769250392914f, 0.08940698206424713f, 0.10606265068054199f, 0.06732454150915146f, -0.0013695082161575556f, 0.05642680078744888f, 0.008565758354961872f, 0.05849359929561615f, 0.05963756516575813f, 0.019398801028728485f, 0.047644320875406265f, 0.047811899334192276f, 0.04916350916028023f, 0.008214359171688557f, 0.0021390817128121853f, 0.0024283321108669043f, -0.05909768119454384f, -0.09624768793582916f, -0.06528918445110321f, -0.14763475954532623f, 0.01545709278434515f, -0.03294926509261131f, 0.021951308473944664f, 0.009543134830892086f, 0.05900990590453148f, 0.07815592736005783f, 0.058121249079704285f, 0.06490955501794815f, 0.1499524712562561f, 0.1885496824979782f, 0.10304906964302063f, -0.005621792282909155f, 0.02137797512114048f, 0.04704568535089493f, 0.02400835044682026f, 0.0430406890809536f, 0.05218890681862831f, 0.05518120527267456f, 0.04383520409464836f, 0.07132591307163239f, 0.08064951747655869f, 0.0015331713948398829f, -0.03521936014294624f, 0.014288625679910183f, -0.054004084318876266f, -0.12082356214523315f, -0.11527577042579651f, -0.14813880622386932f, -0.18648594617843628f, -0.20338870584964752f, -0.15682992339134216f, -0.09611093252897263f, -0.14807505905628204f, -0.027655072510242462f, -0.026056086644530296f, -0.00392151391133666f, 0.1617201566696167f, 0.2146129012107849f, 0.10257287323474884f, 0.011277005076408386f, 0.039033662527799606f, 0.03853625804185867f, 0.022318914532661438f, 0.016840819269418716f, 0.002999270102009177f, 0.01320749893784523f, 0.017605993896722794f, 0.08147149533033371f, 0.04234224557876587f, 0.04506424814462662f, 0.011116670444607735f, 0.0009041864541359246f, -0.10477346181869507f, -0.08464286476373672f, -0.19106309115886688f, -0.18581925332546234f, -0.22885338962078094f, -0.21648740768432617f, -0.19280540943145752f, -0.10108988732099533f, -0.11167804896831512f, -0.04269406944513321f, -0.06955520063638687f, -0.014712846837937832f, 0.0944732055068016f, 0.16062061488628387f, 0.08499331027269363f, 0.02473197504878044f, 0.030527187511324883f, 0.011651343666017056f, 0.0020001395605504513f, -0.0013091386063024402f, 0.05130571126937866f, -0.004808175843209028f, 0.041835956275463104f, 0.06527101993560791f, 0.012457368895411491f, 0.015086192637681961f, -0.08344010263681412f, 0.0027611542027443647f, -0.07594791799783707f, -0.024963147938251495f, -0.14639067649841309f, -0.12179543077945709f, -0.18379104137420654f, -0.17215979099273682f, -0.22768451273441315f, -0.09801523387432098f, -0.03078424744307995f, -0.01605835184454918f, -0.05528242886066437f, -0.022013207897543907f, -0.03742701932787895f, 0.0645945742726326f, 0.04627760872244835f, 0.026918431743979454f, -0.014613046310842037f, 0.0142812579870224f, 0.016558021306991577f, -0.00014317598834168166f, 0.04347848892211914f, -0.027006449177861214f, -0.014039210975170135f, 0.003709496231749654f, -0.05760565772652626f, -0.03943789005279541f, -0.026489393785595894f, -0.04525844380259514f, -0.10906355082988739f, -0.034852806478738785f, -0.09723322093486786f, -0.08052732795476913f, -0.31107592582702637f, -0.17702741920948029f, -0.03393758460879326f, -0.04427516087889671f, 0.014606623910367489f, -0.00024655513698235154f, 0.03490355610847473f, 0.007506565190851688f, -0.034632179886102676f, -0.022561026737093925f, -0.09501136094331741f, -0.05812515690922737f, 0.008251907303929329f, 0.036775264889001846f, 0.026273157447576523f, 0.05223910138010979f, -0.0140101108700037f, -0.06679882109165192f, -0.02701621502637863f, -0.08921851217746735f, -0.07283707708120346f, -0.03983040526509285f, -0.04120513051748276f, 0.08125583082437515f, 0.025465788319706917f, 0.037008631974458694f, 0.13268260657787323f, -0.15656712651252747f, -0.41090908646583557f, -0.017757048830389977f, -0.06088903173804283f, 0.002471483778208494f, 0.0266326442360878f, 0.061364252120256424f, -0.07330858707427979f, -0.03678155317902565f, -0.021955374628305435f, -0.19459107518196106f, -0.1324443817138672f, -0.04986916482448578f, -0.020658623427152634f, 0.06035375967621803f, 0.008298218250274658f, 0.04903004318475723f, -0.03357420861721039f, -0.0033713113516569138f, -0.08597446978092194f, -0.0663335770368576f, -0.02529027871787548f, 0.03868009150028229f, 0.10125590115785599f, 0.20059017837047577f, 0.221378356218338f, 0.09123495221138f, 0.25532302260398865f, -0.297831654548645f, -0.40201976895332336f, 0.05120676010847092f, 0.19124670326709747f, 0.11379427462816238f, -0.028105979785323143f, -0.010153878480196f, -0.09236621111631393f, -0.09235503524541855f, -0.09758651256561279f, -0.18097379803657532f, -0.14430569112300873f, -0.04249463975429535f, 0.01227696891874075f, 0.06511374562978745f, 0.053456179797649384f, -0.00038045746623538435f, -0.04238704591989517f, -0.03167542815208435f, -0.14247901737689972f, -0.0053962175734341145f, 0.07772653549909592f, 0.17226743698120117f, 0.18527789413928986f, 0.1238928958773613f, 0.2600564658641815f, 0.25715550780296326f, 0.42741304636001587f, -0.06775173544883728f, -0.24150706827640533f, 0.09096239507198334f, 0.18962045013904572f, -0.009377247653901577f, -0.009713942185044289f, 0.03597055375576019f, 0.058503326028585434f, 0.0761171355843544f, 0.024121861904859543f, -0.07242386043071747f, -0.0014735141303390265f, 0.027216358110308647f, 0.005568520165979862f, 0.021780505776405334f, 0.010260812938213348f, 0.012057585641741753f, 0.03449152782559395f, -0.03465729579329491f, -0.013764907605946064f, 0.08819727599620819f, 0.14888501167297363f, 0.17177291214466095f, 0.18739400804042816f, 0.19509021937847137f, 0.2044629603624344f, 0.31458184123039246f, 0.26922309398651123f, -0.1343798190355301f, -0.09395613521337509f, 0.18342925608158112f, 0.11162949353456497f, 0.145846426486969f, 0.1108277440071106f, 0.06714453548192978f, 0.15700435638427734f, 0.11836917698383331f, 0.10486665368080139f, -0.011010251939296722f, -0.06611885875463486f, 0.042627766728401184f, 0.04095600172877312f, 0.029980428516864777f, 0.04092012345790863f, 0.04569832980632782f, -0.004385192878544331f, -0.021700404584407806f, 0.1443731188774109f, 0.20362137258052826f, 0.20278188586235046f, 0.18797871470451355f, 0.1310986876487732f, 0.14640064537525177f, 0.13985078036785126f, 0.22897496819496155f, 0.18304447829723358f, -0.10430316627025604f, 0.02044396847486496f, 0.08742637932300568f, 0.21400129795074463f, 0.25129997730255127f, 0.15587447583675385f, 0.22665736079216003f, 0.08729366958141327f, 0.04488745704293251f, 0.06478182226419449f, 0.002340666251257062f, -0.03945329412817955f, -0.010127227753400803f, -0.024447869509458542f, 0.043763384222984314f, 0.04596308618783951f, 0.012018288485705853f, 0.027325652539730072f, 0.04925275593996048f, 0.1177840605378151f, 0.07076381891965866f, 0.1048988625407219f, 0.15244704484939575f, 0.17440317571163177f, 0.17850856482982635f, 0.13882414996623993f, 0.19519098103046417f, 0.14013314247131348f, -0.10812883079051971f, 0.03154788166284561f, 0.13689382374286652f, 0.24346046149730682f, 0.20475968718528748f, 0.053785622119903564f, 0.09597109258174896f, -0.058376867324113846f, -0.011570895090699196f, 0.06183142960071564f, -0.04299044981598854f, -0.1290360540151596f, -0.0374377965927124f, 0.023394474759697914f, 0.0659145787358284f, 0.023062249645590782f, 0.0703573077917099f, 0.028562739491462708f, -0.05135466530919075f, -0.06690472364425659f, 0.011615635827183723f, 0.06156940385699272f, 0.1813363879919052f, 0.20314174890518188f, 0.09847801178693771f, -0.011135770939290524f, -0.007368308026343584f, 0.04366157576441765f, -0.01170568447560072f, 0.1413484811782837f, 0.27756941318511963f, 0.21785718202590942f, 0.1722957044839859f, 0.12430408596992493f, 0.06620492041110992f, 0.10376860201358795f, 0.06253788620233536f, -0.04126256704330444f, -0.0350000336766243f, -0.1105477511882782f, -0.010106856003403664f, -0.03661556914448738f, 0.0593692846596241f, 0.06751756370067596f, 0.02873123809695244f, 0.047801241278648376f, -0.03296998143196106f, -0.0891638845205307f, -0.0701223611831665f, -0.008669874630868435f, 0.10272911936044693f, 0.1424345076084137f, 0.09947136789560318f, -0.03471565619111061f, -0.06775824725627899f, -0.0036019703838974237f, 0.12043246626853943f, 0.2648947834968567f, 0.1760953664779663f, 0.15955668687820435f, 0.1326928734779358f, 0.14402881264686584f, -0.0795377790927887f, -0.0013084299862384796f, 0.009900325909256935f, -0.08434543013572693f, -0.06765598803758621f, -0.0690496638417244f, -0.06097370758652687f, 0.0010824796045199037f, 0.03431067615747452f, 0.0035540699027478695f, 0.044817786663770676f, 0.04068027809262276f, -0.008590578101575375f, -0.014050536789000034f, -0.016340507194399834f, 0.0031450220849364996f, -0.012269480153918266f, 0.044451940804719925f, 0.02817242033779621f, -0.144514262676239f, -0.054507508873939514f, 0.08895883709192276f, 0.17511321604251862f, 0.14987245202064514f, 0.09375535696744919f, 0.13278910517692566f, -0.08262573182582855f, -0.07500000298023224f, -0.02066897600889206f, -0.024213291704654694f, 0.000490318110678345f, -0.15964965522289276f, -0.1015148013830185f, -0.08534755557775497f, -0.02806347794830799f, 0.018601510673761368f, 0.05009729042649269f, 0.04763318598270416f, 0.00885511189699173f, 0.016083791851997375f, 0.027808072045445442f, -0.0517432875931263f, -0.033487267792224884f, -0.044924698770046234f, -0.05139904469251633f, -0.11434635519981384f, -0.16739505529403687f, -0.21688184142112732f, -0.09727422147989273f, -0.2139623910188675f, -0.11044801771640778f, 0.09350094944238663f, 0.020818710327148438f, 0.00659186951816082f, -0.09951435774564743f, -0.05113277584314346f, -0.1564178615808487f, -0.07660054415464401f, -0.061925407499074936f, -0.1894131451845169f, -0.12497906386852264f, -0.05506023019552231f, -0.0018376613734290004f, 0.036271173506975174f, 0.044197775423526764f, 0.015398477204144001f, 0.06816384941339493f, 0.00983953382819891f, -0.005567813757807016f, -0.023802291601896286f, -0.10043024271726608f, -0.10249174386262894f, -0.18900954723358154f, -0.22138723731040955f, -0.16951000690460205f, -0.21483099460601807f, -0.1082812175154686f, -0.13048653304576874f, -0.2181605100631714f, -0.07103477418422699f, -0.00717573706060648f, 0.016984278336167336f, 0.042533762753009796f, -0.06848810613155365f, -0.11292677372694016f, -0.11698932200670242f, -0.0740208849310875f, -0.1095213070511818f, -0.1223868802189827f, -0.07136084139347076f, 0.007653581444174051f, 0.04459632188081741f, 0.07100126892328262f, 0.06373234838247299f, 0.019814059138298035f, 0.06300954520702362f, 0.02909056842327118f, -0.02625865861773491f, -0.04593909904360771f, -0.16404838860034943f, -0.16409701108932495f, -0.1075749546289444f, -0.06781958788633347f, -0.09693045914173126f, -0.030128847807645798f, -0.07975433021783829f, -0.08351694047451019f, -0.05750427022576332f, -0.0029988172464072704f, -0.05667097494006157f, 0.03274804353713989f, -0.06274820119142532f, 0.017564337700605392f, 0.02591508999466896f, 0.018856344744563103f, -0.06701213866472244f, 0.008156941272318363f, 0.010742723010480404f, -0.022206278517842293f, 0.02704332023859024f, 0.03710560128092766f, 0.03845527768135071f, 0.0494280643761158f, 0.046025779098272324f, -0.020642835646867752f, 0.003078622277826071f, -0.02936946414411068f, -0.10075223445892334f, -0.10386867076158524f, -0.10538392513990402f, -0.11688471585512161f, -0.05863189324736595f, -0.04148763418197632f, -0.08377127349376678f, -0.05607366934418678f, -0.07093562930822372f, -0.02760300785303116f, -0.04435143992304802f, 0.005803823471069336f, 0.03888631984591484f, 0.10630657523870468f, 0.0742865651845932f, 0.0755372941493988f, 0.01106289029121399f, -0.024415556341409683f, -0.0232179407030344f, 0.0044542280957102776f, 0.04466252774000168f, 0.056370873004198074f, 0.003162278328090906f, 0.003949251025915146f, 0.03283453732728958f, 0.03258036822080612f, 0.029811080545186996f, 0.00600449601188302f, -0.002459201030433178f, -0.03565259650349617f, -0.03400203213095665f, 0.03407566249370575f, -0.029772214591503143f, -0.0015735395718365908f, -0.07353376597166061f, -0.02494913898408413f, -0.04585396498441696f, -0.012381293810904026f, 0.05014948919415474f, 0.07519406825304031f, 0.09941281378269196f, 0.08876989036798477f, 0.10003998875617981f, 0.0948047861456871f, -0.012668491341173649f, -0.023474983870983124f, -0.021613217890262604f, 0.007051635533571243f, 0.02766050584614277f, 0.0482172891497612f, 0.019502956420183182f, 0.0068955388851463795f, 0.03295060619711876f, 0.026790548115968704f, 0.01221352070569992f, 0.017822425812482834f, -0.019355585798621178f, -0.021474400535225868f, -0.038935866206884384f, 0.02464118041098118f, -0.024029208347201347f, 0.0496203787624836f, -0.0570056289434433f, -0.09862595796585083f, -0.023813650012016296f, -0.05152009055018425f, 0.00891278125345707f, -0.08319418132305145f, -0.005230745766311884f, 0.021908927708864212f, 0.008916557766497135f, 0.05384029448032379f, 0.027398033067584038f, 0.010254320688545704f, -0.011910009197890759f, 0.06648442894220352f, 0.028870731592178345f, 0.023062391206622124f, 0.013880853541195393f, 0.02065989188849926f, 0.03306109458208084f, 0.025311198085546494f, 0.04453747719526291f, -0.01255132257938385f, -0.015599070116877556f, -0.08679572492837906f, -0.15427331626415253f, -0.10658702254295349f, -0.09815678745508194f, -0.14186762273311615f, -0.22762645781040192f, -0.11430131644010544f, -0.10711324959993362f, -0.12261386960744858f, -0.15147502720355988f, -0.20522183179855347f, -0.1528337001800537f, -0.16886679828166962f, -0.044508807361125946f, -0.06443479657173157f, -0.024471305310726166f, 0.027535216882824898f, 0.05881919339299202f, 0.03289799764752388f, 0.035876452922821045f, 0.02808491326868534f, 0.05131501331925392f, 0.0288829505443573f, 0.07119830697774887f, 0.05880369991064072f, 0.008900809101760387f, 0.023760709911584854f, 0.015229315496981144f, -0.040051158517599106f, -0.058454204350709915f, -0.0851248949766159f, -0.1208079382777214f, -0.14929383993148804f, -0.15131458640098572f, -0.19791807234287262f, -0.21120531857013702f, -0.21116845309734344f, -0.16728976368904114f, -0.16560699045658112f, -0.16936145722866058f, -0.11202570050954819f, -0.011512292549014091f, -0.0012321360409259796f, 0.0420171283185482f, 0.0007458615582436323f, 0.06889735907316208f, 0.006528567522764206f, 0.05010943114757538f, 0.050773072987794876f, 0.06756289303302765f, 0.04989005997776985f, 0.023573802784085274f, 0.023161791265010834f, 0.01730116829276085f, 0.032765381038188934f, 0.027392001822590828f, -0.0031695610377937555f, 0.0288217943161726f, 0.043664559721946716f, -0.007477381732314825f, 0.01962236501276493f, 0.02639106474816799f, 0.02779095619916916f, -0.007876463234424591f, 0.013430826365947723f, 0.00863229762762785f, 0.012958498671650887f, 0.03380665183067322f, 0.04528259485960007f, 0.05091819167137146f, 0.04102513939142227f, 0.02584439516067505f, 0.05350756645202637f, 0.023745331913232803f, 0.025881951674818993f, 0.040225282311439514f, 0.00359038426540792f},
